#4, 256 256 256 92 
#0.004999999888241291
0.39228900307430381 0.20066591501266973 -0.79819017546167137 -0.47755168819686011 -0.80597927039767581 -0.72674973389448128 -0.50888130604703041 0.88907907152971211 0.5480785535406687 0.096052500929707962 -0.27462753712880772 0.32071448365259658 -0.041506222002909654 -0.24682444392089942 0.49793247203246338 0.061085484484716179 0.6308571620056671 -0.25681031553857514 0.8077641203104351 -0.75038547709136527 -0.31446039737875597 -0.56039734071139125 -0.67564205158298929 -0.72760786382835718 0.14532251057462875 0.32617536528323554 -0.65873722809308077 -0.89971634740928019 0.4261107497970158 0.66364680773748397 -0.71472480972983166 -0.18160024806000308 -0.13568727818116888 -0.51291498519150314 0.34084806467445938 0.058333452352477888 -0.2396647190859843 0.83196675862742908 -0.05258747704913258 -0.69158616647663806 -0.071980741374185642 0.67278498675338216 0.62912831810728109 0.88651303662290482 -0.57403945809883972 0.1270607892084219 -0.052401479823701802 -0.94318229702449508 0.87025047460116944 -0.24463735951326659 -0.69356777411586035 -0.4442099237089091 0.19496529977534216 -0.36920982569884964 -0.17181778660594382 -0.65971219058135167 0.9569655395843859 0.1694449853009754 -0.55942853705930928 0.38307628845007913 -0.1669082078928632 -0.27415334678914083 -0.79852395960992384 0.69740451392596792 0.21293166895067861 0.54232410506453554 -0.24426203465287666 0.97326694986469442 0.37429086276064205 0.70315048922931322 -0.71831921661194376 -0.6976898786135437 0.37593547505137304 0.91080910149533723 -0.81117684292196146 0.80189601695253332 0.037869889772436549 0.13642167818565931 0.85871371992803813 -0.091879636557716693 0.89178431867239261 -0.83485405511914479 0.46391044066469678 0.086749617516412192 -0.20406387988667185 -0.70790734687256962 0.42703742693506053 -0.24709834123360852 0.46153763842840578 0.86760888987575147 -0.86402205278352928 -0.70537057039577999 -0.40654445691338947 -0.66254601239345323 0.99203394353018792 0.80638721203728925 0.87977809267108231 -0.25222809112268874 0.77965416097066087 0.25406895450040179 -0.54907760282469797 -0.93866505657260546 0.55637907588685809 0.82685787222667506 0.97214404492273188 0.7452022338962192 0.62875388824788558 0.010013934695168425 -0.11837608884944395 0.48746760724460136 0.91813429813745162 -0.22659177110837392 0.65261355212545658 0.38204473787082582 0.86015784640803838 -0.55145032869253785 0.6741373909982562 0.28719527241177634 0.2014513310051762 0.13567502849533919 0.1548041622875278 0.33742927822164681 0.4303044580995592 0.74825970537413822 0.6748832658281938 0.42233840162974712 0.55464691648010489 0.55466135756795354 -0.8298896904242643 0.33430107651944319 -0.19126968886296714 -0.37896729324896228 0.39563602087816041 -0.63489061297610894 -0.5521094219536099 0.36778006486956971 -0.88968838001121231 -0.92335553463704678 -0.62220600136658455 -0.0080644688606562598 0.56411207260755458 -0.70407170322913293 0.76534376003096982 0.21672562380168858 0.67797303464169301 0.62550160550768563 0.66527529604047309 0.35211042563994899 -0.087303123011860606 -0.13327337388567317 -0.5122145467960344 -0.93249896165565538 -0.79584409659534883 0.91808991223484737 0.81576074371848284 0.87903916923284497 0.34042831293327191 0.37040765926726515 0.43370052586947594 0.51053862250900761 -0.29529126421329155 -0.75756916392481377 -0.86842867167127724 -0.89965524426645382 -0.39245977690092282 -0.42053809362488714 0.46812482060311589 -0.28214815691213502 -0.34389362826193381 0.8459188201678538 0.70978737422720872 -0.77978155658570192 -0.85815288399260159 0.47513113332685597 0.43694406721598655 0.81982015064909119 0.10063273790321903 0.10221936232513729 0.17193057535771783 -0.98667038510864158 0.968945988439464 0.65971602949300601 -0.91916934676429696 -0.8268981090872074 0.5778059407965308 0.89659139788550846 -0.94785894078568511 -0.081765747201519856 0.26699905622145126 0.48584158508379094 -0.57122712562383482 0.9717077920081596 0.72827242209029963 -0.43965579729511206 -0.9279474531896168 -0.66418735574194576 0.13980610908000091 0.54017736834482166 0.053664488277241906 0.79591248081806687 0.38609618758135289 -0.23654813842687206 -0.98386907669895751 0.5279433035887513 -0.76141700510001598 0.45307499051702904 0.34776345330652014 0.33921573280320305 -0.44470564715783378 -0.48030597133576214 0.35254534769456147 -0.47575965964969236 -0.82058994277407882 0.43337600186158709 -0.30265776780557718 0.75721599802245199 0.32996739881577319 -0.25051670859126218 -0.32454975011039044 -0.40303354589409823 -0.76467512350747135 0.10422312426577474 -0.43132575388593863 0.96359729858282828 0.66456732697066268 -0.35927320707555543 -0.70059005809044006 -0.1956265648806591 -0.81909583966205635 0.35307443018680185 -0.3997140849939147 0.56700034791929665 -0.88347370824007021 -0.38358316169287221 0.09494365057672538 -0.6448907133400863 -0.93050817210716574 -0.55729289611675448 0.69432501946311675 -0.37521381926499953 -0.037598867452516616 0.046870367157678228 0.14902652201663069 0.14181118977340468 -0.51975363191205703 0.84636875421105362 -0.10097281313546602 0.81021376690371594 -0.40414795531153114 0.57447743675414364 -0.59281977992170476 -0.16882307881900249 -0.32129943991140442 -0.024145533807643504 -0.20522578116749679 -0.65673211387206432 
0.61659063050209162 -0.57869420569334429 0.14794392204658036 1.040785263096436 -0.46337216127883235 0.46467275277118608 0.67206844023632728 -0.92075965932578319 -0.21125880924655022 -0.46730175984777017 0.12761169539908718 -0.99684704864879325 0.89368921243374666 -0.54777583374047378 0.058419803507987998 0.86705774639910871 -0.69511696395079003 -0.7940602420223013 0.0048111069350535787 -0.86074975709562496 -0.9467262488083793 0.92799686595649178 0.95054890106302425 -0.092077712182706939 0.57436966034963777 -1.1932523084174609 0.48106824833377565 -0.8394161319858332 0.86318962634409502 -0.40854123262398651 0.11079747438202567 -0.04995417457967713 0.15523896274555976 -0.41442023431845693 -0.48532091721374493 0.02646035470332634 0.4746973930688374 -1.2560782695469725 -0.70340124165914275 0.62246096916946625 -0.4279058254175499 -0.086292290259475019 -0.80442969201042736 -0.10921358696889634 0.91315240899680816 0.25421382650510543 0.33826528936157191 0.13440503542671142 0.033167154012077385 -0.6553284050450523 -0.27322515079726034 0.56956262646553002 -0.64195592515067024 0.45800750877434704 -0.83427210959542097 1.1583780278741502 -0.61342109498182351 0.84434985479654445 1.6397565687571034 0.3556747861529897 0.54205586567225861 -0.85869889708962144 0.036680639722853563 0.29158629269837727 -0.96749139148906371 -0.13822053737017564 0.28758583420810957 1.2688906750404176 0.16540423754880762 0.4916529202255509 0.94163202034893345 0.73697289284381806 -0.20911412668542592 0.3935573473610639 0.21067233337989447 -0.29598358563684352 -0.35145762467333347 -0.1507493973606471 -1.2384227795479645 -1.9225684804512773 0.67039606509878902 0.71099798564205741 0.5878783762265406 0.14057292354346979 0.65493112051709423 0.80313408330516056 0.76276343415482517 0.54578879997165897 -0.25052508879425889 1.0402134352559358 0.06603566679805678 0.41068388575079973 0.15185473592557244 -0.12827570680182115 -0.27239952890230379 0.20323082253052902 -0.83580028519299532 0.49607069484333272 -1.0144167514905569 0.55659603005349967 0.12174879159140059 1.4269267146837288 -1.0200950992302196 -0.9543590562542027 0.23241555918953882 -0.39966793907486486 -0.0086024883994224501 0.80318944411582904 0.04833521353133511 0.026849525169897453 1.0091165351699438 0.92169817533188014 0.017668151159821382 1.0503026302209628 0.090127515212509862 -0.32730742427988391 0.30971144295850328 1.1476304178395291 -0.32365618659294537 0.054574908521160807 0.8595848105494841 0.38185567713927587 -0.42263109598874987 0.87678773290810474 -0.49618004139549077 0.83151598500410184 0.12991759533307304 0.71253228032797922 -0.41943743366770941 0.69852515041663987 -0.33243328098218 0.87192703299816932 0.52430681195591289 0.87271990896178597 0.9138012440745813 -0.59829296060949611 -0.53635349662317866 -0.33344652133329639 -0.3837863369710659 0.51854359942691453 0.92701357079786695 -0.41148285458487499 0.46517588363022427 -0.36741772210104473 -1.2357166000361828 -0.38533677818323608 0.33434786752957329 0.60259421993252682 -1.3500393066405865 1.3817654860734794 -0.5611488798608808 0.24345232285829285 0.70604338506328357 -0.58314804668388009 1.9200305526214299 0.83526914226403859 0.65037294241574461 -1.0010992747992764 0.016773043570310342 -0.89529986697943409 0.78170377063956475 0.25572342467725062 1.2480089393899612 0.54446675752959417 0.57968350051126916 0.89710469660087033 -0.13407763514017748 -1.6098445931429257 -0.10093975287531233 0.036028444065696656 0.76862763947926838 -0.74294932421154314 -0.37626968906902691 0.49211183938421682 0.46617432558166405 0.57353818644542065 0.57905140450318116 -0.64799687565653719 -0.79890646726194303 -0.73255378188145981 -0.91468388648233512 0.20176062568311348 0.49095996408034515 0.18530957597287293 -0.88726498176106428 -0.53767290495850451 0.035437861023002698 0.8423528283866305 -0.05507980668673719 0.84423900547066943 -0.23453456438353523 -0.43561645710602154 0.60393845796759049 0.75048856904925731 0.94814858499612875 0.2165033788209634 0.78318989633326308 -1.0054199036855751 0.20965115955786631 -0.7021887207345533 -0.41851094122975346 -0.15361758515284746 -1.0355080571843858 -0.75270436225828508 0.78929818276940766 0.5196007381669201 0.74523918019800406 0.34743965429517204 0.87455817049822915 0.42105850853355159 0.46881059010837189 0.88024773878685547 -0.43519119465066347 -0.16624789350513708 0.1603284483007987 -0.28645167978288844 0.76668957674719362 -0.80316086103346196 -0.38316959866499906 0.92412441833156267 -0.8231014572417108 -0.52905804478750906 -0.85029842300005087 0.77235012750271592 -0.69030618976768499 -0.59011269577602066 -0.17885436351968068 -0.96730323466561063 0.38775112295519737 0.090572689145598587 -0.65940671307097953 0.30141963630514895 -0.36150723465416645 1.3941263822273795 0.59857556787319277 -0.2882400931595917 -0.9152139248874005 0.78975736843766597 -0.76883647344908368 -0.6406710463723635 -0.61917518587860088 0.61880738603401542 -0.60225929728865379 0.070772575885198544 -0.24629708379589518 0.41209153728759906 0.96579269870690798 0.93292472119702619 0.60842762739183187 -1.6356144423719643 0.88799871122229179 -0.2347856062741181 0.029726981511027487 -1.5559585210919815 0.55811535772996346 0.33937322480297782 
-0.46177663063826574 -0.52006768871339992 0.4342220235663411 0.2155808962723936 -0.14094573859171333 0.64134592085514219 -1.3241510381588992 -0.50590778040204287 -0.21927635752713942 1.2893011552108935 -0.19465462516377491 -0.85269461166799343 0.64640712906951703 -1.2740640817698712 0.33743671961193089 0.90871495736135288 -0.37778455758255658 0.58110974800418058 -0.14243884524860331 -0.8670539973635607 0.11031976208439712 -0.027416002056024721 0.9255905316462244 0.5274199079439722 0.86615236216220548 0.061367570178445463 -0.63718145014792427 -0.40765491179908325 0.27361548823467963 1.7947198564497386 1.2230643180915741 0.9524384743433536 -0.7151449999786994 -0.40666487009860747 0.25149925680102458 -0.046652426587172148 0.64345610834614031 -0.38068166330488667 -0.51940984871325335 0.55281503631424656 -0.092789314500423783 1.4931668640268034 -0.4140456153205308 -0.39797210169339459 0.35578091524574318 0.9390884549056473 -0.58385557401285115 -1.7352108944308116 0.7944070626416555 0.53420244637034853 -0.040858720041621312 0.075078548871112122 -0.82480103841951047 0.57731018292244363 0.09522694243333045 2.1147820797906665 0.28562564262431606 -0.043077709005739505 0.41874754239097517 -0.47320154931601344 0.16806973441430079 -0.92821134086020374 0.55582727676648414 0.56850010103201842 0.084191497587409639 0.84724707944653233 -0.040622877353013426 -0.2005453668249178 -0.69749892095154264 0.64975392477382199 -0.33043626154882599 0.65071981053120354 -0.30532740072464926 -0.59573363994889694 -0.87709600432792001 0.9730129462520839 -0.20010282563076698 0.53661873249451753 0.043273862881418733 0.24241408370123851 1.0125390505246783 0.27888901763344354 0.5956942412722005 -0.58236698008377275 -0.98492900640933878 0.60685353770312389 0.14782695181942532 -0.47671834424755533 -0.17533313251515023 0.30478845893646567 0.198863883028401 -0.29887466155302311 -0.096302599284955673 0.25325148654312535 -0.77949791905670074 -0.58598533682756904 -0.042698833620122015 0.59865957309529005 -1.4625812521243584 0.29627503400109007 -1.0346156207915804 -0.80870227845165399 -1.1029157866364452 0.48156471174632787 0.034585759728325213 -0.74032873514349917 1.3310375842448918 0.12725422457857577 0.88086282564048823 -0.52751261199565636 1.2059136063882403 1.6360588872093575 0.1689931928071722 0.2209146940070352 -0.45139898485745211 0.27818287965474364 -0.66652704314871791 0.74244110777105976 -0.29037660347210975 0.8696337869995362 0.72762566426766839 0.63445557428107091 -1.1657469809662031 -0.55200665313136021 0.31049028062425277 1.0943766144654421 -0.022642780379400245 0.034092636947923187 0.95937109790234754 0.44717866118574068 0.55904794253938606 -0.38263937962364353 0.78243474412754233 -0.34972676057976287 -0.92773144978977162 -0.47956758426900131 0.56747118068849423 0.59318412066488435 -0.8983751387959894 0.1347974312954015 -1.084263646321338 0.24260938887288314 0.1810685322405188 -0.63235373218156499 0.31679144637127815 -0.5536716905346859 -0.59467011619989962 0.91797912536070558 -1.6390792898411577 0.26916012745141538 0.88922596952676636 -0.82286308314352152 0.75646440551081828 -0.79633572229385452 0.52605749844503324 0.69010513495549386 0.26169457618580222 0.27178174155818202 2.1096304094936715 -0.75756248170042118 1.681686011507014 -1.9152311206414356 0.2191674927299164 -0.023880242012281033 0.92115512087231133 0.4551634659436532 1.1358979675443663 -1.8483827505855703 0.47135931370385137 0.072636605665938617 -0.039953873546186021 0.23619779068143998 0.84561673618189215 -0.35555745767654096 0.044968377439067349 0.34637693348827292 -0.10223791735921353 -0.33762788775429414 0.89302744131374656 0.32718085057869312 0.27943280473386678 -0.55503528306514149 0.65208716737381434 0.77303580415404849 0.38772579289727582 1.0968260708263495 0.3301327667719004 0.45568070773440184 2.0769380204495729 0.35803917582602057 -2.5336990278808442 -0.66310384688877322 -0.67759485764148231 0.71888689272148643 -0.21176762867215815 -0.46757495375011238 0.14524239080344242 -1.7126904196709105 0.5456294017418386 -0.78753096614976392 0.35975035864990706 1.6937605116071859 1.4666134469793197 -0.71588170160608444 0.13180689206565249 0.56249050816722235 0.74695150317708225 -1.2712082083598208 0.90871962358084868 -0.08980902003685412 0.36820667225407278 0.70588006521559232 -0.70755585234162643 -0.32602584153214664 -0.10382723507199502 -0.56224655653430755 1.1387728810264481 -0.77437923677311293 0.39436289084959897 1.0403421478285091 0.41904390608962749 0.58669102820100061 -1.8775110343262611 0.97338322940673072 0.7354167764355336 -0.17824997410942775 -1.4287050285216976 -0.083163112435091932 1.2832355796259425 2.0670509928047056 0.014717342658282478 -1.2225112758360117 -0.69096560523498873 1.2335846791588949 -0.71983690964613145 -0.339878969624968 0.66913728562330943 -0.59070723296721883 -2.1313213921184082 -0.87744539370776209 0.19633304631294882 0.55304486026762423 -1.7772586205636136 0.30301039110633837 -0.57549718359542368 0.39491410042143726 -0.50802196482001094 0.7708195844562471 0.54778530842867001 0.89830103775949866 2.4577067086771018 1.551805107114087 0.60104254875380336 -0.96794332511718251 -0.14580728533006884 0.33413360759048527 
-0.48446139614821437 0.46432737028087867 -0.41086911004653554 -0.20761569976476829 -0.35709558999521313 0.20942051046482496 -1.7662342390782051 -1.2191228715816211 0.88477219201214841 -0.34439314555209549 1.5362044699181385 -1.0375839045184216 -1.3353817550565956 -1.1393341218697095 -0.62850694209853775 0.89189942146292733 -2.7815233665868297 -0.1506806145100166 -0.43719964849433329 -0.20827738300562729 -0.33459881309031425 0.39575671929272482 -0.43683774347549609 2.1084572388938412 0.16684617014112227 0.31552417078766348 -0.062284730715017209 -0.18224063590940281 -0.83045090311317049 0.58022502543859489 -0.39642152022801325 1.0492610288324549 -0.25701777717544499 -1.1556053685384156 -0.21704133279737059 0.060639716846197754 -0.29614578032881511 -0.5015083324578764 -0.52207674953552929 0.21255958347702644 -1.4871120888803282 1.9706432571395991 0.92589319883639354 -0.19120078539796567 0.90103713602924951 -0.53725162836671669 -0.90104251605764751 0.46770345014440534 -1.9345150245919562 -0.010330548450837246 0.080475059728156065 0.71726428870539294 -0.10573998199815847 0.35016150708158256 0.49656421703002679 -0.36336142258061177 0.30603628443096315 -0.32635529395551277 -0.0084806569833929656 0.054255419238402595 1.8970569226159948 -1.7438760292633102 -2.0984693762755713 -0.95765515935558565 -0.76310751815491507 -0.68435495116504619 -0.84495447876133911 -0.53222891044169474 -1.0207579721463846 0.013734715101141381 -0.34905969064399034 -0.26471379388409144 -0.31698757159595192 -0.29418285353894047 0.0013673599350840708 -0.60662379820822954 0.62413899473129097 1.6675766902885527 -0.025168339232458304 -0.94824500863675032 -0.55909729116502671 0.95792495947395617 0.53503429415004977 -0.66739150993402285 -0.50788080184072937 0.54765075634613369 0.62590096967817677 -1.5654845517869913 1.528027502739181 0.37142641262169562 -0.036721104860878873 1.3791421033999283 0.96615372050149095 0.86647682443689722 -1.2820204988080315 -0.69546134570251195 1.0413538977149028 0.18680169964628288 0.82764899247751189 0.38119348789220725 -1.7983462660631924 0.080120846259515557 -0.51227779754399272 -0.17918525941684443 1.0753833427664445 -0.60655370143909704 0.29221813030782218 0.068000637079210349 -0.88680272688400674 0.13538243574732811 1.1961634187217238 -0.60491239186477896 -0.65800200564961508 1.8633663514598318 0.31414160902473065 0.081628086868904867 -0.51946216001395062 0.23817262230320416 0.68962935452305218 0.3651122224185514 -0.69534605114836323 0.99202329449717808 0.59997842158848524 -0.41821003225476322 0.6829418093173204 2.1854298903650373 -0.021197683716685501 0.13098341384036891 0.11593356213577032 -0.29342995686587653 -0.50273415501209584 -0.32633672776599454 0.73462088860712604 -0.28106358208647547 0.39691021417359718 -0.50875074405478948 0.63943688597191461 -0.21364963479476609 0.19696568005406259 -1.0235879623905833 1.2263241934573927 -0.034372806944764536 0.021441452399735928 0.95625115117627957 -0.91850171946166437 -1.2781493426351225 0.54596552692400779 0.99836931852770761 -1.1732135838614768 -1.7631022823808411 0.27522762549970864 0.92965787607334993 0.90309417690619764 -1.3466119121673383 -0.47403494337902008 -0.93193095107912161 0.93819209841620177 0.37506669961186356 -0.72617439431424546 0.22287759930284806 0.73624291474051773 -0.11496600490216564 -0.2988106339331556 0.74306557608947055 0.42081284377950473 0.2690930901006735 2.0276583247454538 0.034453298940824106 1.4909360467390269 -0.3039792628660441 1.1196675306199997 0.75334487448491605 3.2863637865880855 -0.54566952760199838 0.87309881044567272 -0.80319311772487811 -0.56356453583447674 0.41249189375168616 -1.9356083155509662 1.1017097839317516 0.67968859078963417 1.1299760469163214 1.366026821081143 -0.69925832303867097 -0.26140539664075435 0.68565777087408442 -0.96140430419812084 1.1009635415479579 -0.018892896404087433 -0.18448511784675778 -1.0101408174146931 -0.28464355044724299 -1.0531409168638886 1.0936069946420577 -0.66511095365865358 -1.07320369580191 0.31549817523964846 -0.91015179354928233 0.21297093650768029 -0.09900809463367459 -0.27833628781799924 0.030559684894812089 0.69416790298940401 0.1705112880300042 -0.42630880451601794 -0.40982728130582635 0.1778642973979197 0.1739849462543574 0.85911878254954543 -0.59663014866992226 -0.41447779222717718 0.13043265016655986 -0.037077151269796597 0.72896617123389307 0.8282678458738546 -1.3559095148175544 1.3192023546004683 0.82233527085189362 -0.77791778032350023 -0.81679889757555502 -0.14094999421952559 -0.961034444443707 -2.0636170745658542 0.33444187207193848 -0.80245215493827127 0.24477432826714368 0.0030369816025783867 0.16301505364145294 0.16933523656551216 0.057156936078943073 0.87609226321832534 -2.1527437305892492 0.85708129202673866 -0.44829459186324211 -1.6501158815973811 0.32070845877063225 -1.4428456394082694 0.70000174177761365 -0.91906426898452342 -1.0288822354878424 -0.7703911912074547 -0.24322200425644372 -0.43624457509657988 -0.8244982707919275 0.17662449951676032 -0.85656397795636996 0.10125984492109284 -1.445147595149386 0.88195347536065316 0.53843871312122715 0.16282980858958376 -0.33697748015798329 0.091721729966186535 1.2138583622741099 1.0146256656944344 0.24075885037151892 
-0.79702179491397029 0.66341289249495694 -0.55444236043652395 0.67574687152269874 0.63449084199627448 -0.66361219395178783 1.2927869097245939 -1.6252413168699 -0.11655146401914987 0.31710626030395539 1.6107019021096727 0.66111220925321157 -0.50130560825738657 -1.4797850286450762 -0.14559749997480739 -0.033312865514010435 -2.0656823884271125 0.41547435115357284 -0.020515758038199772 0.74067706916398157 0.55093133242883707 0.98867707099855662 0.97840096826062228 0.95040746556183531 -0.25599409780846222 -1.3108414103687769 -0.54403850717572833 0.84948366045427171 0.36842981998762508 -1.1013058423838624 0.75101811935515095 0.093545557079015379 -0.4856105205782652 -1.0025842975656469 -0.43096240789758394 0.85154064515342842 0.33113711220173414 -0.10326825996314278 0.22466914390963602 -0.65399913591827619 0.38832615910088103 1.0506935226691623 -0.86539157471179651 0.8217884877206566 0.61675769116133616 0.055169686885777676 -0.051792554679808721 -1.1121632516616442 0.43613659391576265 0.61506636380746482 -0.83745707223884791 1.1712777170141404 0.92148951663345591 -0.75624137618310161 0.40651418090330294 1.1122192851418562 0.58742794364723494 0.8365651830121672 0.048253911386353501 0.77097970591850229 0.78329234320311036 -0.19200325350363567 -0.822241265126885 0.59829853551493439 -0.47653598978489736 0.42182995244347921 -0.69722349843448206 0.096099266239683873 -0.91240273494172663 -1.3608354762687929 -1.2415418344823221 0.66121372794639255 0.52745451767814411 -0.64856712328260502 -0.070698786295471369 0.068017955378392489 0.46064145683718877 0.981481830251973 1.7733468576832201 0.45518920190792184 0.60902781804540906 -1.5315383278651633 1.6137184135353162 -0.61997841867324666 -0.10595775706998613 0.094428755944827455 1.9748659269587812 1.2565935623251825 -0.024187218056980611 -0.91297358787019478 0.38769039031593977 0.39711869006531814 0.73571004475636481 -0.45639583626383246 -0.81022420323809508 -0.78424050628607611 1.0436247684460564 0.26028734355552002 -2.4427407563339889 0.17211480250778938 0.47807170139416105 -1.1750141549667668 -1.0965796344187762 -0.45075664122641279 -0.084170633184028593 -0.4410239951487343 0.68271474994378534 -0.54056638449934602 -0.40604497480473217 0.00049161096000795179 -0.44221526819806162 -1.0017023993633734 0.46674311465266022 1.7292259356635584 -0.64423029466965975 -0.49138704470958344 -0.13839925637801034 0.44176279431276899 0.92183721532232277 -0.63053489027024523 0.058451253780201086 0.57000116066376072 0.27104279533524178 0.020829637782459616 -0.26702735034638592 0.5371076021107517 -0.16868554281106049 -0.83916722434263269 -0.50308630869952087 0.15837127485169508 -0.48632167444657581 -0.021006946806367058 0.21515226888860364 -0.30130966747604521 0.61897722030214242 -3.0051453657788008 0.12230290189886266 0.1085664409524293 -0.48698872258327169 -0.32205427699364697 -1.1277288057601245 -0.29625834912688759 -0.1028113038024694 0.84489802390430335 0.0013718858427157726 -1.4874629785284799 0.34752642823865931 0.73694191294864841 0.14072722708797797 -0.04418129998587543 0.88286395635668102 0.092193355665875235 1.3173343410956109 -1.9391237878581 0.89405993197684075 0.46577562456708232 1.7218479755373191 -0.067346608548764064 -0.8200771237180694 -0.77389233214330666 0.050451297798301459 -0.88347662256866322 0.46365354734040631 0.16005931380215122 -0.090852951160712708 -0.029544652546075554 0.85097257693661976 0.57235670724417187 1.373571244873917 -0.50108573257785416 -0.50380939198441066 0.67848695262985415 2.9590146317765535 -0.92763202715874693 1.2889384461204643 0.20446277007103372 0.95146509507837751 0.47538851193113907 -1.4564462694280909 1.2319950796391266 0.23608062039538039 -0.041163156369514474 -0.23161914518682897 0.25210200736671629 -0.16149244643939392 -0.32171150422612532 -0.38926839054367085 0.54914611731532437 0.92528251308789344 -1.1160556157420529 -0.26364223961993283 0.69659025826906018 1.0633893911884797 -0.072623499683115766 -0.10541500242563463 0.43728863092421127 0.46309086401378058 -1.9831657190708825 0.056121337330616257 0.58199886018056324 -1.0431663131117892 1.1736674622527363 0.3231995243514581 0.19939237181170461 -0.8716308806904719 -0.24278001743348043 -1.2239995062822142 -1.0616640772180574 -0.70081570447957253 0.95008560898296013 0.73864730155925085 1.5173254590060232 -0.95045661952287841 -0.66129078920317197 0.038460702424483142 1.9637200280819449 -0.26069744929003746 0.63031140351950354 0.0069255144447853568 -0.69991901754577135 -0.61124243765071418 -0.68456678330604759 1.0326574745660553 0.98144575978922566 0.33156077818389551 -0.7000981859473473 -0.37408584255340371 0.15428551879335395 0.70072098978045239 1.1203397947208074 -0.53838718427297816 -1.8123779856124249 1.4877562596735983 -0.65291862063303141 -1.2072449998543506 0.70816262094021376 -0.35147319579094682 -0.39478091195630827 -0.32542270315655597 -0.17264691590770517 0.70294423797690597 2.5680739685258041 0.17752285946821797 0.86830244964988379 1.4460804290114786 0.88596274643166684 -0.084270142102594259 -0.31826833797604659 0.47561934356061919 -0.74511940501336993 -0.81668894986375951 1.6754354577188684 -0.36351043285032686 -0.38377382278144317 0.65687460762644567 1.039282185501049 
-0.55049780301471685 -0.70359443359377594 0.36531597397019644 0.24004622259457031 0.073789971309024441 0.27045806430140423 1.7649372032099577 -1.1545739129974943 -0.5190493577569455 1.3918741733277915 1.0155395802755502 -0.57826842519374078 -0.61713931598571914 -1.894839653080292 0.63640962085257846 -0.24282209975100916 0.0035707893941806885 -0.50070502983726473 0.7123994409785559 -1.2973756840940274 -0.045130305516420298 0.52396307977052992 -0.37443670795040052 -3.0364995321333024 0.024227629294026925 0.14816160963518221 0.91100126515603697 -0.65187872885813647 0.29099888885183534 0.031782356806782985 -1.3002978715962874 0.5161194129606903 -1.6120504036073582 0.51086121322286426 -0.30969937679871168 -0.90771147328811663 0.18142046408135945 -0.97712946039936988 0.23773792388500181 -0.68358591977846095 -0.82142759120480746 -1.5116540631006348 -0.40391209244823439 -0.96379569071916737 0.43443293252429888 -0.55034486098680968 -0.7694890747768216 -0.82229336416772714 -1.3257228617656516 -0.22322705507678431 1.8592158301202586 0.058761294511014854 0.66301113128550193 0.34395599069971172 0.54162613045738728 0.12539330988478983 -0.45068635697723403 -0.69874977375543412 -0.5539113278976936 0.92285130817410765 0.39188547649610711 -0.058275538998068865 -1.0075302228021523 0.66325178508755112 0.50973118724398792 -0.018209263283831382 -1.233249088338281 1.2009773823533527 0.31887675447693825 -0.23971373213038039 -3.144311746145628 0.98310068629344449 0.29539911089783077 -0.25640920038907494 -1.2017321309920923 -0.68321049400354417 -0.047009805367037825 0.34299565065038684 1.1558778426193239 -3.2270265253098431 -1.7816362770082501 -0.62368008610681103 1.1766127223142719 -0.19940117797222792 -0.47296468362223537 0.080613889000122327 0.25516587432111637 0.19837137510036748 -1.4635619947871781 -0.50067822730829958 0.60483248474630924 0.63839943795749887 -0.64702327144781036 -1.0112755842419283 -1.0217370781483088 0.70662767618959377 1.0836464121411622 -0.057439344790384213 0.46194253563782517 0.054088243541158196 -0.45315711698447314 0.31695435171748326 -0.90052062048553794 -0.19664537667869861 -0.39708408162451347 0.087703013914056105 -0.87640046940860228 0.61078295163367591 1.2801701310322562 -0.84845777163939062 1.9682709230386701 0.3161369485327008 -0.037530454448157911 0.17771600105877772 0.84391874089739827 0.65202400123440207 -0.64379579755101535 -0.51037781267638338 -0.34322326684653609 -1.1283134524600256 -0.55088228748671453 -0.76829249014857237 0.70621066028316182 -0.23134622592815551 -0.7164729417327117 0.5477025789789155 -1.1090796371755174 -0.5438669958058111 0.72806122605460155 0.52941173291952359 0.24166545338258311 0.19908047726552683 0.18871552436770284 1.0389088606175041 0.72997518590422861 1.7155899070739991 -0.55469023830676401 -0.22057044150368943 0.61084172051979435 -0.82698188804965178 -0.62477555950875896 0.34865594276028061 0.18564320105611548 1.9091462476401471 -0.11537841626071457 1.2390045858937986 0.30065361452578365 -0.51643776697422961 -0.061339386239832865 0.22713448904031222 0.27579003432603744 0.82611281338267806 -0.27698585146261534 -0.57737484062109301 -0.62024004826790757 0.22962448167757193 0.71796451848167175 -0.078971139628642564 -0.19761722885253458 0.033583784340309022 0.26807157793911801 0.044792181069599105 -0.29354501527587235 -0.56343830544378948 -0.64021364419828009 -0.3378790207026901 0.57707767362348061 1.7173400697503083 0.72576157268092423 0.3439864237928924 0.59474575067269386 -1.0267208188939898 0.48680643304003296 0.98308318512789494 0.85946037628438188 -0.4262082788572738 0.55210750808490483 0.65414781449122972 -0.17965301396254327 0.36693417100163123 -1.0326384508294948 1.0677071892732135 -0.31321258874376917 0.37258195748327722 0.67629444404583783 0.13075030143028682 -0.91992095964590093 0.23299352212840663 -0.060241079689098351 1.7723727029397669 -1.9577118422529283 -0.84803018075705616 -1.527658300122642 0.91322311683093282 -0.77509517749511914 -0.70192272174596482 1.0601650180400133 0.047442834238016089 0.33593103181929707 0.19238811821460236 -0.57968833574366219 0.50892617371721294 1.8642902047220524 -0.20640259130530961 0.26585237675191242 0.25894372121043463 0.28127644252419931 -0.045106147661043421 -0.07655505383131947 -1.9405549239008646 0.68732825665081332 0.77051201785711476 -0.039707050058406475 -0.96439127221575827 -0.62591601047785894 -0.31997587936341643 0.37865348198519694 -0.60776081409651705 0.25308724952886719 -0.020568913681623252 0.91246765060998225 0.36684573168569884 -0.28663813232416097 0.66857289323393287 0.12395890586263762 0.80045924081608233 -0.06994290549307175 -0.076153328181204308 -2.4935836122157902 2.3080847934444328 -1.0781118956070164 0.78447241575100934 -0.44769799994525411 0.29632404523246519 -0.88236618566000069 -0.16413467481448307 -0.31718435869552747 1.0181666531220024 0.066309319935903333 0.32694888260879756 -1.4839582954794404 0.56156077947049599 -0.72960791656584434 0.63639318160553593 3.3875537671649232 -0.18981235705524935 1.0866619183924693 -0.65912839706386361 -0.24631162758037972 -0.70207601407958475 -0.66798169284788855 -1.6242088932934411 -0.86908479210149325 -0.30997323089858952 -0.61234279696359073 0.25888242842465436 
0.0059763973114889228 -2.4050414399495694 -0.92826508984341149 0.07913230233000379 1.1163668565358984 -0.63306540192683813 0.35357555674642666 -0.58565583333322491 0.58273995917058208 -0.28406784457605294 0.5974633843893955 -0.93484977611852615 -0.38200772721850379 -0.21534121888703733 0.71121762435597391 1.1644744149502746 -0.41352704099225052 -0.70840190922696378 0.17041577002966149 -0.34919651981838801 -0.00035630092615401008 -0.023465799409092693 0.64533209435768246 0.36829569032781667 0.2184842819564129 1.9395891122901607 -0.23833090880805841 0.33841927813972605 0.030267965162724671 -1.2844795881742654 1.2365231313349243 0.85354847053081251 -0.3546405848134665 -0.48281556233713419 1.1744145895319762 0.56822759504957687 0.93219927748640952 0.12565119916996198 -0.56802345690728684 0.050361097378365562 -2.2734132799108084 -0.43516387448981403 -0.63923159720571909 0.33865172632278007 -0.40961765673998352 -0.21095719848625738 0.31910816749573195 -0.80312137728012323 1.6402124456005234 -0.22704315675798306 0.088469608241041178 1.1743813600986579 -0.23345680866969257 1.5844090481317534 0.43565277594551949 -1.0994831784970742 0.11480752752205974 1.2782581161149866 -0.49986136450794671 1.6900768974045175 -0.49822864731670469 -0.3153535797135173 0.35579551691091876 -0.99425618820469663 -0.2279931124157486 -0.12430741904854373 0.90931260977150019 -0.55981262377477825 0.64293910223371509 0.41224359838839303 0.50519298740667551 1.014630448748153 1.0275376097311804 0.60190384579115497 0.56006053320857818 -0.68035521008806543 -1.1682268705449625 0.053103616175373278 1.9429719553551683 -0.80195298359202416 -0.19981520979569897 -1.6751819343080403 0.75281924374325493 -0.78878252217601896 1.5703613198131365 -0.34761953549767743 2.5470913702328941 0.78561542643435034 -1.443472569355966 1.2266702019893803 -0.14672274660732548 -0.43328347422490016 -0.1470479722019957 0.95725895836316521 0.67064168384351541 0.37182024544917613 -0.37876011132333626 0.18278070899006374 -2.8982938419204025 -0.36566085450586172 -2.2407090077975038 -0.65831199670890095 -1.9354240507302467 -0.72962782947129978 0.9137416411878112 2.3958311614195265 -0.66334463161098445 -2.6653033062806601 0.51852283138523303 -1.0474807327883282 0.42482972076865294 -0.27274760025177869 -0.97774483454987116 -0.79867061062927569 0.047006758856397941 1.2648432669274838 0.12028213555134191 -0.12779219016308496 2.2615992054006542 0.77195883584798974 2.6329665096986501 -0.69015013558624405 0.75658195176563747 -0.56620415923104084 -0.4602360660971313 -0.22995790803385388 1.232341228516028 0.39598397420627901 -0.29124081779861222 -0.12680594222961067 1.0168816578543656 -0.32010908346612232 -0.92451708836323609 -0.33458906285736539 -0.63028719665370025 -0.40090534046219045 -0.045430589589227521 -0.02461283646162786 -0.65125164039363037 -0.33522647934172534 -0.082241748567668527 0.53873117403836746 0.81070621218371897 1.3072472642171638 -1.0792754529768767 -1.8440647703566551 -0.56898435129076375 0.62681416455772421 0.96049156153914261 0.22784329816532056 0.22494604066393709 -0.55255725880109763 -0.57236554421953867 -0.99803495961398958 0.35446181058432424 0.10573623286543139 -0.290775270971669 1.0043367212639607 0.22869562196733273 -0.90116316277155384 -2.1600938883277276 -0.25256482821292198 -0.51563712882468093 -0.48323424664481485 0.95348855225668327 0.18471187037650946 0.34555014206709678 -1.0353784020254881 1.5937805282166142 0.014768924165836257 0.059044122107788331 -1.1443805888023584 -3.2615143525487151 -1.0014059980472896 -0.083577498117323415 -0.36154449097316643 1.0211438348317965 -0.35950938910061586 -1.5273282292902526 0.57383631594821727 0.37117135937634671 0.38521063546858975 0.80651929702111769 -0.02173490841930064 -1.2357066268182668 0.64346796449911436 1.3314098711281139 -0.16212720449609727 0.39228190942629526 0.25999950699359703 0.78935051699655057 0.93997080056504623 0.86120003346981089 -0.29855912276167607 -0.55790922349807492 1.2646539516418713 0.5207995670536899 0.22797416764060993 -0.27921849121728926 0.44599554380841339 -0.86631188414328697 -0.20259136425844118 1.3133245882718871 1.0024987172522177 0.28190049976254816 -0.83507661477104589 0.22556967181764151 0.58254237486217408 -0.93714341731621464 0.69162863135897945 -0.77497780083336087 -0.040386875618188114 -0.068873656908565839 0.60859969925770996 0.71000170256754958 1.131158179613434 2.0802012223357953 0.59339421647274204 0.64454788781646599 0.84788895978018464 0.055262613518188286 0.36489121570692373 0.29163715178524069 -0.32056440271498138 0.91558010896768072 0.69084970657003664 -1.1244293299614465 0.47263930119201419 1.5277268877198931 -1.5067006192145875 -0.46098566551360953 -0.023684931081852989 0.20026698014851546 1.861476039587149 1.4161293736362977 -0.62775103821529576 -1.601230467223854 -1.2854412525073273 1.7684304914922113 -0.31108747080535093 1.1181319184959584 1.64750284397717 2.9448595721266035 0.76541403582030143 3.5896845706542018 -0.49772957461238321 0.26151659536855304 1.6319770456510811 -0.96577599559776683 1.1616832661423491 1.1811323402638132 0.28819628899329497 -0.57854339762970963 -0.92709060320791226 0.63678291020829136 -0.51934162608058654 
0.10369609422186277 0.61464982885322872 0.82706996192731763 -0.074755959033460315 1.6148123151041425 -0.93757326339074354 -0.87898744708782606 -1.0086982655375967 -1.5051773152711339 0.44705615559076167 -0.56592301598690486 1.3172372375357668 -3.7977939188181202 -3.7010611561243283 0.77330861077659985 0.65874243340229421 -1.1536007258844383 -0.040339825509623832 0.44987628596025908 -0.082288844752422485 0.87684622709369664 0.6616515291907018 0.085159093119380885 0.59233436014461593 -0.1973461075894016 -1.9546587700681888 -0.68259442093765843 -0.35479661917040711 0.66448150716772536 1.2827408800997877 -0.1519190712652391 -0.0092004126726029593 -1.5687878505543202 0.76816154279420756 0.34140922190021838 0.56969365678000428 0.12732395243061725 -0.72632876220352049 0.41532819719467579 -0.61107081542639752 1.0018597610124442 2.5420597189243983 0.41312351035398576 1.175007589296585 0.12960541031159625 0.5902952771258434 0.70143308940916138 -0.78205848376158837 -3.7300461612315132 0.51172092434550587 2.1520140189916148 0.44825096945472809 1.7382755264152583 -1.4662918643552616 0.35411070343196638 -1.7319255520400616 1.6900305127034212 -0.78696318946405075 -0.75884920122251409 -0.29937690074457557 -0.5086219357901467 0.66976985531748878 -0.49308370948997654 -0.069937254121605771 0.31747393641339861 0.22691277153296679 -3.0604191691217828 2.6982202453862434 0.10999633975541682 1.8879488566834737 0.97349564669167177 -0.69418626464585631 0.91348590938543428 0.17428885263989866 -0.2650315536379666 0.85754234288209774 -0.85441573944406035 -1.0785001264169607 -0.093244530858955288 -2.2463472056469826 0.17802609040899617 -0.16633067371092045 -0.13121698265955353 -0.93338648337853536 -0.65669737325524746 0.91577754892243313 0.78408324256862805 0.32535743267398198 -0.70961358671073982 1.2559764134661586 -0.42001820708266874 -0.27837201198737149 0.18473159398310429 0.091378376865401151 -0.35627018268149491 0.71843862749967458 0.5728966718065901 -0.25839709238011321 -1.3611505901985077 1.030946269762838 -1.281703578290889 0.39209846598063558 1.7114029435011662 0.80123268442874229 -0.49664747701761397 0.64137837898188688 -0.160832251794746 -0.64756805361637804 1.0369980916726984 -0.0064822624788153978 2.0401553940156454 0.38793473431428788 -0.1489881778911048 -2.136277823820953 0.74058089226583734 0.4554637582572037 -1.0589820410238122 0.74760283699084584 1.2338288975150014 -0.64456584211294066 0.28838537828171745 -0.1982245822789373 -1.0530460257022933 0.81198101522594002 -0.60975347490597021 -0.45504762692231815 0.25886477927828971 -1.4060465350765938 -1.5215292614924867 -0.30043894551747641 -0.28685459552528492 -1.0135152922082575 -0.13889836778522929 -1.2291717051937161 -0.61125223304767251 1.0015201471479016 -0.4921808938402838 0.2263056126187849 -0.24929457507870192 0.32654240403683205 -0.70056971424591141 -0.41332870612450828 -0.52997873922624739 1.0042629479526131 0.78122149180846234 1.4008365853474298 -0.31325790640354917 0.86320387699327106 -0.14037824672532018 0.98835237860583702 -0.014345198476579364 0.85643314661165049 2.5253032487247236 -0.89676441218329672 0.11425142610415494 0.71556877465964053 -1.1885074936593749 -0.26564502249223326 -0.63063015036005099 -1.0014697073264185 -0.81261826442158291 0.5362317318937323 -0.36894233189586595 -1.0043148551483967 0.24147668575405296 -0.25804312551030895 0.71380161521327079 -0.74431602006276243 0.89442110825294097 0.3321890276485408 -0.39868472211891859 1.2854159150539441 3.6561284008538544 0.29736416784952802 1.4261270564485387 -0.083030151327173354 0.48104914453483738 0.27002965045945648 2.4058910867116521 -0.22650120991417652 -2.186376155390271 2.5153728472127139 -0.20443417888810536 0.67421579655705466 2.9394602500317744 0.41252591831780028 0.18641858712796247 -0.13233885661592257 1.5396442181186252 1.3066588555992074 -1.2557726552876598 -0.21110706720662531 1.6833835560496868 1.5699222033230182 0.44549146221726615 -0.11115357644806247 1.5045738457748514 3.1781956035761545 -0.052131252734444279 0.16872137936297471 -1.1365546652247016 1.4046833159950489 1.7117643412985226 0.25531555452073779 0.19825291885260096 -0.0051315496034260877 0.4040606510899688 -0.34175866465040688 -0.17114663006356323 -1.3765251892304238 -0.044142436158671361 1.1941655133484865 1.2022032898297799 -0.57041910550914721 -0.57701430620266358 -0.55409234142033037 2.5230235349423684 0.5621449639110887 1.0976755609748272 0.85236949265197193 0.024276726364262164 -1.2776814635192735 0.21160491207558454 -0.02305640005315613 0.4671525635174909 -0.7481262380233924 -0.24906382651451101 0.032243485615033346 0.63253880526614226 2.2831309079363167 0.52595303702893925 -0.38921101507048528 -2.2738456832403191 3.6520128714799296 1.7748253656040869 0.30516700404211045 -0.10276212589117864 -0.29497205225564871 -1.2470110419111105 -0.99081959817158161 -0.25657222276910618 1.7369461785524032 1.8300122951894167 -0.3533608220156515 -0.71959473854065859 0.45209059822089354 0.41622228984551218 0.35717290598327012 -0.55975981053096679 0.55351166665113105 1.6997078197046949 1.6652491913941467 -0.36070275825116532 1.7018452746086141 -0.5170589513036763 1.1245605238007854 
0.61441054892257496 -0.078611704411922473 -0.12778220792060749 0.30168481483470483 -0.067157934470646247 -0.56708907275357512 -0.74262482874840541 -1.2085628878450474 -0.062883890736423656 1.162971628876722 0.17110786918773024 -0.053665475953200564 -1.2693462622757183 -0.76873955642129244 0.91118931108501355 0.53427937122917402 -1.4558170896824849 0.0034985949079926072 0.61101994407291693 -0.75596775685795137 -0.51749763200996191 -0.30277060918535975 0.53855013058927292 -0.44946697235200284 0.62206763250474295 -0.23344474238042273 -0.5772601274528546 -0.56510774174808487 1.4488248480403201 -0.62723774551571276 0.33792442590768834 0.38249010915002829 -1.1332452483961624 -1.4028950837805583 -0.5451475348002629 0.88394485767458442 0.67698272895905509 -0.77874958807340278 0.4525665273809476 0.043462729299856888 0.54038385866838901 0.61978399393658801 -0.65800152713521498 0.14468704561520021 -0.59380025361559019 -0.69663156412472649 -0.19515299580046855 0.45887175217314002 0.19071815971780459 -0.3295581260549636 0.092446755227980973 0.97958984187908149 0.11554060373475043 1.3087643111402389 -0.2440826961720568 -0.33851456717535444 1.0749271485327381 0.45949192301232578 -0.0012047070303359375 0.27442316770532466 -1.4965973713808958 -0.21041141987731327 -0.019233017285167398 -0.23043188242899476 0.81309893962392388 0.26631875112832715 1.5349575102513167 0.24945866647077175 -0.071224098825216159 0.69437977283032482 0.84446706739727051 -0.43902892473056621 0.7173794226832898 -0.012944246554277252 -1.0822786067636028 0.88649814970747143 0.53527393985283822 0.55561273487476626 0.28170871425127109 -0.28648187990574808 0.99379496377636756 0.11173063371249463 0.030720711482687884 -0.40610600125906027 -0.81919206452150284 0.21117207510840574 -0.68722741802361687 0.81670572598223867 0.49765758519159214 -0.66745800534011035 0.45036007909108844 -0.1183968001584743 0.075033374789752832 -0.024954169807085862 0.56419972020783515 0.026782595282183692 -0.85047478414843658 -0.01990483741576337 -1.6977227077711794 0.38659927162566082 -1.0137732247203675 0.88243695348091211 0.67241134371221178 -0.14672809403931591 -0.39482933452783947 1.5390550723175482 -0.65678971012252352 1.2205895802941216 -0.35572025752786779 0.87246406344673033 -0.58834270216226314 -0.58841643587870363 -0.22065487551774071 -0.27586753249162915 -0.024549342186340532 0.07378945508914167 -0.75356736913779054 -1.1912728369945045 1.3583703033476178 -0.37824475751078318 0.2231960347759625 0.65424228356318515 -0.3676327063401858 0.13493291715555988 0.78580986699015787 -0.52398314989366912 -0.76402062104743984 -0.67814008729576891 -0.74545371661598014 -0.28650597551024287 -0.08793563570782581 0.37396929168603732 -0.67873132426746363 -1.3250363379356449 -0.8775973416554369 0.65576327537584367 -0.77739919705862892 0.045543832235772311 0.017778947772773609 0.027240638301052677 -0.41388463360184591 0.63870757754158169 0.46278985445168308 1.9723577878071306 -0.31680002772149179 -1.8510913918346594 0.22143608328412015 -0.30410484876107702 0.4795473793942408 1.395215949628354 0.33663415301815264 -0.21774823195350249 1.1188394694873911 -0.90153401562696944 1.5112869154039528 -0.71125049852739375 0.30249041776757835 -0.99138688653406426 0.26308558647073038 0.80407795045098596 0.59447261954864661 0.34260090646749053 0.41673503290509478 0.66600891293417763 1.4650050627233866 0.23466486428855168 -0.74315216892560798 0.68868602299310056 -0.63370570745065502 0.82935120954445474 -0.72729106101395724 0.21141251106764608 -1.0048809534911509 -1.6360820352403889 0.094315735490093228 0.66039171846838673 -0.6496355629263677 0.75471636616574045 -0.41571653529097619 -0.19848559858660234 0.28081473578592231 -0.36827249562000924 0.78000489757493696 -0.36524633396444928 -1.3483728235393444 0.50278812887063074 -0.13467267594453186 0.15756118059529384 0.19397769895248565 -0.66462904940746537 -0.63393808545945196 -0.33593876006769113 0.57756501286044115 0.89395561405484336 1.0602705389857272 -0.72361125126421988 -0.090500063221465712 -0.1074375845082103 0.67660918792921654 0.1060027011325477 -0.42934495802226769 -0.50304341021582999 0.49076692510675546 0.081758492763855495 -0.66131830306673034 -0.33867164167591601 -0.46455654763704146 -0.51585992048577267 -0.14512234551436123 0.029449175544048727 0.56712697368091125 -0.67737649976662018 -0.69259888723187812 0.07495470371464738 -0.063872040790817888 0.23579420477689497 -0.40515951122066107 0.60252578470371099 -0.74007216469161319 0.92892978956805783 -0.85796312413049824 -0.16704920271076751 -1.0449249321461778 0.19607474252906534 -0.18048471050128101 -0.60340504078707935 -0.10821801822290152 0.7986562808254225 0.29255220407215432 -0.16547693709708813 -0.34179337258365927 -0.99032961531110508 0.86230349602188561 0.77986334839281268 0.57003223523301449 0.66188308338978064 -1.1836401193868726 -0.77960810609669007 -0.70724204323447504 -0.20187005899760732 0.68812299378166886 0.038220843654840755 -0.20488877504694084 -0.6505629251183962 0.3265598697482181 0.63635198813888849 0.066139743845322174 0.71310739217788677 0.31491939047623418 -1.1535378400871881 1.8643782599109087 -0.59055421305472799 -0.66586688531426774 -0.49112481461544494 -0.38414329562900518 0.050359650726991403 
-0.62167514007272628 0.14777919945702772 -0.03513596383809342 0.34764223767831198 0.74953021703580325 0.50735678937641382 -0.77045368758702848 -0.74533968981167942 -0.7182797726309279 0.39872873027354805 -1.066497490332101 -0.33187325137443774 -1.0626376320644453 -0.97966667475697788 0.31845418663267178 1.2450512714490591 1.4519751461152914 -0.73159739987911698 0.7236379138337905 0.38427032616940332 -0.65714342030101813 0.23777885549416872 0.14911834707359703 -0.39882930345687728 -1.0418222255796594 1.1040000764191142 0.13907463166275255 -0.86829309523972709 -0.60694708218342552 -0.62394859601028174 -0.29632677403388652 0.1098169119085783 -0.56850379149615227 -0.84502907283603079 2.2947508996701442 -0.97914839272836229 1.1399461721404784 0.6858494779357529 -0.75535451198170422 -0.57760005470280318 -2.0159669907649862 -2.6128612067427954 -1.1906782029174456 -0.40397819051186562 0.57069904063089039 0.91336653440961701 -0.34005767335464948 0.61836559330239493 0.61228343064878088 -0.24520702121800605 0.52556258697717062 1.1121042000014627 0.23721396635981976 0.39830727843456981 0.37945307538284551 -1.4451078499556806 0.010312408187213646 0.51797871738745282 -0.22491244054631615 1.2856626255361665 -0.36252046596486154 -1.3222498685805695 0.59071389651844353 -1.6346811515636996 0.4417417941461238 0.94287874391649906 0.79611867603276798 -0.41638355801038424 -0.80420407735706412 0.68937609452873794 -0.58938931042874776 0.25849246606586218 -0.44427061519531952 0.38969928985174562 -0.7399867654957043 0.81774847189379773 -0.46029454683432192 0.24751579010276425 1.5412808050420046 1.3537874892298123 1.1434524251778926 0.080876946610945133 1.3044798397048991 -0.47969053133480871 1.0847728557490333 0.0029123168836464679 3.3033576207554298 -0.43951306598259654 0.24921959569697774 1.3527168614325369 1.3547729764030336 -0.76785964631073633 0.91127211530809971 1.4230716440148536 -0.11867719837175547 0.030366996388375842 -0.60123071150829932 -0.78666141195459138 0.37868092802094727 0.22895765291345077 -1.4403176941755664 -0.57351820191197145 -1.1274642671850523 -0.61024239246224332 -0.18129500637960069 -1.5063570252273177 1.5859991860895633 -0.33374638526168421 0.88272859307620144 0.35977505373081947 -1.4262816215460605 0.63637135157410685 -0.65200372269547135 1.7191822730610813 -0.82228160999829258 1.1048123253848683 -0.40898576050187341 0.7830359514698283 -0.11243424382474804 -0.028231864445854037 1.0631307595703223 -0.71698409060751411 -1.2380467161968904 0.99248201107319245 1.2985618776196193 -1.4530675739648158 -0.15803557341419802 0.23298251841730308 0.94378531680987887 -0.050087607488783339 -0.85693202677241209 0.46463775228208493 0.11886532682446042 -0.81658033579925715 0.26773430232554635 -0.68075765309562686 1.0527526290430338 0.6258668044110659 1.0314153446779315 0.78471394653604687 -0.85397072452305733 -0.077332209094595442 0.7409881762562277 0.97382250768088896 1.1383250631743569 0.29856293199195733 -0.84386421334511119 0.33484494054001984 0.088872638755921496 1.369850702407736 0.73808602890764796 -0.3177985813780303 1.3943169107925981 0.62539822523758815 -0.89683468742648131 0.98848193635078785 0.011342425654112868 0.10436536956482946 -0.94948703081919561 -0.86970754780947379 -0.95385924611827266 -1.3105036702765411 0.22917241233694063 -0.39138130883162581 0.46726955765686001 0.038808242049182096 -0.66811871227362618 0.4009164655483442 -0.52585518088785876 -0.38613663944906723 0.19329598687731681 -0.043900154906829948 -1.0522870879574842 0.78523752990723228 0.12045566812083089 0.099723317995494498 0.099696464039400787 0.60930902691789102 -1.5258432730612206 0.37378361120164627 0.28078749538606551 2.3702082405185516 -0.0051250614163322987 -0.38675094850097114 -0.21264739199726462 -0.53906433021986844 -0.44759005387431161 -1.6607075310623367 0.47733787852773996 -0.093102187527484337 -0.29040460261825057 -0.59759138573794279 -0.0062687976469426917 1.0501425555359771 -0.077402222846816748 1.5431680828856029 -0.25949551434222673 -1.0843757375486816 0.81798735521993338 0.07805716401577463 0.31898201251189578 0.69031392656099733 0.80731662395208004 0.74759111844229575 -0.51709514619211816 -1.8851329388972788 0.65755518862700491 1.2463749591544746 0.92670187458868247 0.24940166996681262 0.30724303846690915 0.087375529524407594 0.87374606141814504 0.65946659639709126 0.30090145109337973 -0.66060819070896593 0.53198664856722577 0.59095402668812547 -0.062778579976745547 -0.0054309442962211249 0.98067683183264509 0.065797459056144092 0.14643441720695288 0.23216023605629779 -0.016812496749829556 -0.8497440620722041 -0.54098462157878258 0.52349555681864579 0.22789147081605954 -2.9137540462186764 -0.59850938831358835 2.238810415301749 -0.53831325340941816 0.9026110617388946 0.85409860532573201 -0.53547755417304299 -0.72379938876485439 -0.6684119435337339 0.97495330744843534 -0.094417580333579276 1.168939175448287 0.95112409541385012 1.42958619151316 -0.077154199324364375 1.6083584354750013 -0.034608844508902128 0.93735142202762123 -0.31929791782705841 -0.61629409332723795 1.9581818646204459 1.4998567474080406 -0.7064214708820592 0.31577559001476513 -0.45431088589552654 0.51602820987563169 -0.57295976624998635 
-0.77502007165863984 -0.65953856901229402 1.3890461836096926 2.2438126322145062 0.88711777745909381 -1.0994000681295979 0.9418543947145086 -1.1446681533300509 -0.30314544558671985 -0.58850260897858964 1.5172698740400614 -0.078613629672865837 -0.12208261380123775 -3.3637490676215398 0.40791343441226968 -1.2551930224727936 0.83536281769166942 0.4440223236518146 -0.093789606062276806 0.55237293406559473 -0.39564706640346603 -0.068653475662637506 -0.58490865600007014 -0.46386536663954736 -0.026563978012970741 1.1623907873725974 0.94412629473882015 -0.56463090000487759 1.1061506713742306 0.60292695147179765 1.81295508989057 -0.33665177193197071 -0.81937809038479315 -0.16164047763890504 1.2474897450351412 0.70300593609674777 0.90549874904807437 0.94439453291706665 0.52319359336829174 0.59689271837707303 -0.63893896808089701 2.5271486548867435 0.65208204267728798 -0.018893296478931228 2.2497321161526256 0.28936234170022895 -0.22672114895649631 -0.15868943863975718 -2.6888632291946841 -0.43079647361032158 1.6705790650614964 0.028677433016259687 0.21465174367460638 0.27154842510317295 0.73317665985025637 -0.038034432244697054 0.41370978182310719 1.4427118697300352 -1.4866163435700654 -0.031626055052326664 -1.7938594580232015 -1.6250222581882516 -0.035602560745905301 2.0054994054211162 0.21745096572082248 -0.82074743730023447 -0.94867892864760528 1.835700044062768 -0.50573522163187434 0.98222106341479098 0.88704956249532607 0.58900963287416297 0.13860149605180999 -0.080554355349343146 -1.295286094495921 0.32579623520586631 0.80202087275716205 -2.6628865021197727 0.075553505070843602 -0.97128662086030815 0.70295334263307263 0.86127659234556675 0.50970983776616263 -0.54317678589117513 -1.2506363199205393 0.23055076317578163 0.82337539679449001 -1.7177275643556511 -0.57574235130001483 -0.024082401268719741 0.8496217771307667 -0.14986089558857654 0.38816956990830992 1.218222969388528 0.55033574585064016 -0.49923405886997418 -0.88597996959566006 0.94642655058075686 0.40029726751148115 0.021661791190657 -1.880688487444143 -0.46927779818878651 0.23565851103999413 -0.14210868118380243 1.1283047924926157 -1.5021463807534943 0.1004298210495901 -1.2032341356656551 1.1052601810661959 0.50067450101365141 0.68584279020372396 1.5101510866620285 -0.26337040453598992 0.22740953568677344 -0.68383727057159072 -0.016851757552354983 0.34127371676496487 -0.64404774806452658 1.7273278929535834 -0.87828819510306355 2.3250772320673612 -0.40202392326821973 0.654838349536502 -0.25986512458939831 0.85907648339160114 -0.18931325778586935 0.14775337766346386 -0.50395514115459017 -0.69175127011517623 0.15760049192556533 -0.071820158931420228 0.75934987299788737 0.80205461700674674 0.39084611031990218 -0.81440446916748965 1.3047207249381221 0.85494325224471523 -0.75436542823198105 1.0953759038386499 0.14338312257510286 -0.28487393539825334 0.010362317448837258 0.30245046447334883 0.28140750446394297 1.0536839355030712 0.41602231111194304 0.23261557990022283 1.1087684348072908 -1.7235670118086033 0.88791415585233135 0.44646916622062782 0.92261305146409578 1.7946045726938238 1.4162211665478115 -0.41101166042285314 0.11621551410995734 0.33199823835351355 0.83319503777947546 -0.4527887541000985 0.019318768278738685 -0.74967027885956949 0.042137995494994772 -0.95609985242439721 0.91720878344030843 1.1784075673236383 0.77247046875895409 0.2304731278305294 -0.087611615544704688 0.41532252928171182 0.50979768852923724 1.5272003025349394 0.16510790765328401 -0.7864909514792312 -0.31028938916911764 0.9920806215622463 -0.70865628195512975 0.5890515193019451 0.87632412147588201 0.7865195894494309 1.1574184954865674 -2.2115022216407731 -0.64375800636031333 1.3403195620185024 0.58080954609209612 -0.46540730298686184 -0.71235787738381962 -0.26906672965111728 -0.25188132503650007 0.58512085116896195 0.7399409997486327 -1.8266472584452127 0.90505416432153296 0.55859778075903377 2.9481254446716552 1.0019285361778156 0.36007629893210324 0.7942550234168585 0.085663698865931587 -0.26940942508127225 0.55242908971934168 -0.12855478350360475 1.0072270335533953 0.46751434335636993 -1.4355136965224518 0.10906016073238427 0.49647415824020913 -0.52224676940931236 -0.3750163959023215 -0.013866576191248101 -0.44470142610672281 0.26511515773728361 -1.2642024453324425 0.70038045944194804 -0.71326488223110862 0.341787553314365 0.86774038772438622 0.95985154160574337 0.58007502768966424 -0.3324446883506158 -0.74607318216950336 0.38698504136262074 1.2404069675101581 1.2241990896733332 0.31964315245532177 0.38500527697469739 0.61206631483841567 -1.8311943991771678 -0.035242891207554999 2.2894212634570565 1.8924938215702527 -1.0008600478109584 -0.050915912803927814 0.7977419602120227 2.6144206497958993 0.19045106841374476 0.28824378494947711 -1.1073540939847886 -0.19072380099566402 -0.12417576736499769 0.25464770667768633 -1.8401453539261807 1.0859065712469627 -1.1357092906773558 -0.52460264453070493 -2.9681122039185475 0.55778041139800594 -0.22528449188993765 -0.55165298760625392 -0.1968937107007559 0.0023830125439338232 -1.1076423580906545 0.23262199279435508 -0.5133809587705167 0.96762808251324972 0.35718752807853593 0.9818027634845734 
1.134163755408528 1.3368390358201911 -0.23907854856534033 -0.53717074042338797 0.47183964906085368 -0.10979629517350628 1.0782339499967359 1.8172937967196254 2.2656356089990135 1.4372301968143464 0.97764803600446348 -0.24371856493011779 -1.6826773134375723 -0.86750127636148078 0.54268803118893871 0.25897882528719651 0.65290354447439758 -0.7851685974909427 -0.7420195156706314 0.45977154680777443 0.81235776696837014 0.57527446807487537 0.9467692264253984 1.9857606393009992 0.19178571048385729 0.56249050045033322 -0.57972399508450811 0.31596234223161712 0.41381797632970124 1.1224704665213601 0.38934040520207008 -0.10681213768644882 0.2603437110428245 -0.93932175424284114 0.26637739347462691 0.28372637233434606 -0.71212769895147365 0.1079775183675357 -0.5805089750662239 0.12687299617443842 2.1986235458295567 -0.13182415748074655 0.11175409528204173 1.5971669246844162 0.75449105175423836 -0.091345162723296514 1.453974846777333 -1.0773778021734026 -0.90928877687143117 1.0395607314830559 -0.91196859857138002 -0.31209201692095312 0.18425139319007061 0.19159370768173364 0.13190512871068363 -0.59623592324314778 0.15350101011115122 1.5324914386513955 1.1469172905278378 0.57513560364297167 0.84087950478368922 -3.0371640478436661 -0.72131016202503384 1.238909186545194 1.065713908341799 0.50286224914633049 -0.96252111956330577 -1.1293709457997125 -0.68320571059688706 0.44001048785588931 -0.79928722990772438 0.0041979567794145868 0.3967056923516496 -0.9660656449111843 0.40564856697505042 -0.62159197521810561 0.22425112306689557 -0.28681172661773935 0.42849825491385157 -0.016029421505585506 -0.67121673614818034 -0.12154340952210037 0.42693573607518759 -0.8018896449820585 -0.27529762350492831 0.29188345208715399 1.079842520589305 1.1556556928207871 -0.27244413666445766 1.768801966828655 0.25946630457893566 -0.87663372274192441 -0.021874087798222933 0.69370021170921758 -0.84792849950618598 -0.79584181466141835 1.1698927116122422 0.19974444740120773 -4.2182544550060541 0.4836020730554591 -3.3559497848914424 0.70038513365032695 -1.429060318199159 0.30248709647590766 0.32692093870060629 0.5280044125034643 1.2172662374157563 0.2365358442679189 -0.40628321974790316 -0.54466323372718706 -1.5928349033426705 -0.31285397921680491 -0.34227554498710133 3.5955500188937903 -0.58590334551078838 0.61775850598298965 -0.80641752697584834 0.31235352186993748 2.3238347336246257 1.6293788329111958 -0.95952095492007006 -0.58661461248211966 -1.3292048493832505 0.65056913155142104 0.95795489995718797 1.6343948103202637 0.10513440941889036 1.0023921417115322 -0.79230156533181018 1.2843707544041441 -0.086930063511369629 -0.91443474795368085 -0.73829241101873666 -0.42402028044686679 -0.32802641446108749 0.55477827371413069 0.075965941121110228 0.44244782383992154 0.81377382699708911 0.28206134817813017 1.0298515295145567 0.5196501183800597 0.060488979831067671 1.061066287595597 3.5320699269747404 -3.0222329136960817 1.2516368749050284 0.94307436077373197 0.47379169474508198 -0.064206643776765771 0.51571036457691977 -0.52186212962390754 0.84501436805474417 1.9306537184090151 0.36312799804528978 0.22006407575772244 -2.0729717494723934 0.40847303837085391 -1.0926705174662992 -1.3586496289502925 -1.5900705839765745 -1.6941815865066057 -0.32839031658614226 0.63663877048713857 2.0529628022728312 0.15702193740795983 2.6846326323147642 -0.95351364187226817 -0.079506654579296565 0.91440058482649222 -1.7005192048470152 1.2806518262711326 1.0875972534063394 -0.623406923453106 -0.14455485583014324 0.44867226565956125 -0.697532981564293 -0.46332875277626717 0.33387624591070292 2.9831675664957249 -1.0426813226063436 2.5317534682634797 -1.9627899203238226 -0.52219044138368542 0.94478640543893311 1.2048353937744702 0.27208239506556037 -1.4620057154479065 1.7636457552950322 -0.5680169696948284 -1.6414713463873856 -0.55981552380233812 -0.24621515177868006 0.23136675029376916 -0.68796791150029157 -0.47996759437834624 0.66835648765192823 -2.4060331453855412 0.69460250600141238 0.44847833361253064 -0.42382827791540301 2.7797125546728751 4.5632627752451622 -1.4073602603515634 -0.27323153993348265 1.0408237689074034 1.5621238643527962 0.27211610563700223 -0.59519836354994837 -0.26702112811679263 -0.18799427067149152 1.4039570409976927 -0.46987848632356632 -0.74361508212408067 0.747256889984104 -0.9461123451997463 0.61719925538063347 0.30662993443554015 0.018039051214378987 -0.65845771556886612 -0.14956019385180191 -0.0095709485344476174 1.5615118880945629 0.203404164278813 -0.72641609464833101 0.33133104631772536 -0.69896957459028164 0.33528936682314514 -1.0002883297075584 -0.79108653316090527 -0.59226191310055676 -2.0350622349285747 0.58559836872849402 1.4142103308415406 0.73815313655968373 0.21884225679477362 -2.7469276640429241 0.29664151224734425 -2.2496505083972709 -0.49240088536440502 1.4644514300737592 1.8097928134204626 3.694202940446309 0.91692075212789304 -0.12426581653122087 -0.053903095326447326 -0.6585677444639797 -0.54713248492175537 -0.97478824245192319 1.5510407583320849 1.4033765983711457 1.018268879699622 -0.24820147743162269 -0.88257120109885046 0.99468930951699375 0.10472554801506999 
-0.54764211291272558 -0.51031626976863653 -1.2610153461316984 0.70164324887237139 0.94178113544018516 -0.3918977521705968 -0.60271145383111413 -2.325554425437399 -0.96330634975084795 0.048201882453737903 0.40010407818690519 1.367328096876784 -0.31152430052340829 -0.96395504092380113 -0.16764310266817367 0.64042426844027256 -0.70087800245383358 -0.86531478224505265 -0.54637714995971975 -0.54081892000073362 0.30850307873254973 0.061290271421058376 -0.1394655060104629 -0.19199262336803649 -0.81916114780163551 -0.069309118516130711 -0.60157419282049118 -0.50517962483743351 -0.42826486840738132 -2.2923767248355977 1.0288137676596028 -0.074688305231992269 -0.49572072437433978 -0.61684914456527284 -0.63410254820101719 2.5411415079329034 0.95384485591527224 1.1625103908593417 -1.3895029869472453 1.0905535492640064 -0.31505170659038373 -0.20454264811944067 -1.2043080583718726 0.27659646844701247 -0.015445135380695765 0.56193122467249434 -1.2395334622695751 1.7094672352839915 0.1022014321855611 0.23194411463713635 0.36070360904653787 -0.22402515571760875 1.3615301640470276 0.71274975090514214 0.88644600190276546 1.2506825933675503 0.99334715522193395 -1.4386670978475986 -0.59852071227308645 -0.39672203890598406 -1.2456255864113723 -0.67862167540651674 0.12117320958282279 0.48784582733684062 -0.090033166567388398 0.77319271556459179 -1.5391479358203282 0.025634778245242164 -0.55434751169925267 -0.12939631778736035 0.97110589566721239 0.21551510650939099 0.02147380480592145 -0.68155145992955868 -0.19667398661497504 0.52152079394469819 -1.028946002829882 -1.3926770831193858 1.439404099264207 -1.2676572450677226 1.251632425161844 0.21321090593824538 0.35079770908488184 0.21555967312717816 -0.086823797473006323 -0.48365810330480102 2.323108035496233 -0.13672858925660944 -0.51744436873580724 -0.99554608112607401 0.97886609509563138 -0.53651263196527965 -0.090022093628491576 -0.66055477322822531 0.58066041187759876 0.66384407315168681 -1.14476596452573 -0.47162238842187071 -0.10404942317092643 0.98835189534919066 -1.6964926337524955 0.34026177880303221 0.46305701403133559 -0.8016054619304368 1.1451301698134959 0.35496276489030137 1.8789291752225725 -1.4292537047338527 0.69463077137142903 -0.34365804779052667 1.5062897271961653 -0.016809019074459704 -0.75745472305982509 -2.9361914542084557 -0.1610343502750112 0.42156066998238539 0.55884378876582952 0.17277937069700133 -0.44830079056320454 1.6693768022220461 0.26175061216604451 0.6198724606014745 0.0616613422964256 -0.59557793564299322 0.64835693830974728 -0.89137929902192048 -0.39445744715180564 1.5723831468631444 -0.52987857483779499 0.99615640670135386 -0.17533266609058848 0.53739598886648643 0.035375503409797081 -1.1293176799111815 -0.026205297564833807 -3.069309812903664 1.160795640274775 -0.035611637787790758 0.56468604480219875 -0.77957680976919363 0.37177305106136627 -0.12921610075093615 0.99130613888346464 3.0325622417655427 1.5982545651486697 0.29412437190681445 -0.99091967268286829 -0.31762328313792071 -0.31412622994406358 2.2626389282995607 0.068848718859197966 0.42834512793969304 3.0377915379320397 -1.9033082859827191 -0.56389436871198784 0.0075679431584830372 0.15345601620832028 -0.084495034329810009 0.22670034666706221 -0.03950382494255264 1.1271925997359939 -0.17221395057059805 0.051881595986421267 0.63900435905108111 1.5153129113232788 0.019200190334210606 -0.6701125899097029 -1.3303717728449795 2.5361377010353254 -0.27173003234181414 -1.644632835506048 0.66813588964627313 -0.90995792561357547 -0.38979541841696619 1.7688552140582294 -0.98674402697093178 0.50704821002180034 -0.66819888181077958 0.91922447301722521 -1.0768847883824153 -0.59032730058453231 0.17022533540141085 0.59553085465226541 -0.94547497667788183 -1.1105916673863645 0.8805975502454485 0.45331509913396145 -0.91389521029242071 -1.0650417852633121 0.13520602744349719 1.2014640053030654 0.23084971171640439 -0.055193954753859464 0.045729382724243151 -0.028064550679684351 0.11369008136917925 0.78167678264253115 0.10224303789209385 0.16745403883966933 0.44229684602686159 -0.44993583557973882 1.2378515989683967 0.36270843139098974 0.65901321545853775 -0.61296631082948438 0.74657080584444124 1.0027707128117569 1.0297145172423008 -0.93712985547007821 0.32004731595879748 -0.49385222138256785 0.6877260991767794 -0.50927835538782817 -0.77653998383185929 0.75204501768315113 0.47388116030927674 2.6743217501794749 -0.3942142695533753 -0.093513195093837695 -0.4309774930254347 0.01829132010142151 1.2197883412186701 -0.83577050493605742 -0.72711110267807166 -0.23201478707866091 0.83731263147596513 -0.11401397450949086 -0.40962748928521314 1.7469849339814523 -0.82461149541764911 0.53259437680413724 1.0264299401550419 2.5024160702790845 2.9231975733813433 0.084184428670904032 -0.64618455517001816 -2.3931302303686848 -0.07239902072445642 -0.81848300084069614 -0.45404691444361966 1.6228504005514146 1.3395013796586104 -0.14569072409527437 0.80614707869673652 -0.7446811375484873 -0.063645299078352563 1.1263181389858796 0.13152625884666774 0.53315537752807873 -1.278566652646195 1.2543818444472663 0.0075613042406314874 -0.37355012705196494 0.24686976654132373 -0.28257491470655677 0.45263016692763675 
1.0836938136341594 1.4553999334069632 1.106119999493955 1.0891449109669102 1.1115563432644109 0.22300899219251252 -0.88080575811533091 0.30547356396567388 -0.64553188897769909 0.85304027119523829 -1.377060293310826 0.17746577525041629 -0.074589391970210903 -1.6808722431616288 -0.94455342812536935 0.24591612861094775 -0.29044122085417928 0.60724524638019406 -0.18971408204569856 -1.313884844447649 0.10364392474226153 0.17618440034804209 -0.11591123701575537 0.77878496962093813 0.3837187108263489 0.62528819933524182 0.38305925113716321 -0.6325503189164049 -1.2863530172475353 1.4113681155489846 1.495480098865192 0.92462260912505423 -0.60644548671615262 -0.4352529204778921 0.0058051412467197807 0.39463528402475911 -0.84450175088695068 0.36727545856730243 -0.2735963740342523 -0.6062458281225287 -0.80223269288140986 1.9960930088410365 -1.0242559053624811 -1.2597787805999163 0.98520847347414386 -0.7790919376130071 0.55562936298806909 -1.1196111490023775 -0.44688354720876405 0.029119965609249371 -0.30936457617977664 0.19402907825445592 1.2087314319919609 1.7058180315011726 0.15339628741841035 2.2195786613375201 1.6201515929786725 -1.0154733637613294 -2.3946440157582201 0.57083379377193177 -1.2227268828546352 2.4580820632834923 -0.27477286949398 -0.071229480807108919 0.10242587490815952 -0.57719645455963153 0.05012037768917206 -0.31965758257663618 -0.24745685803281631 1.2072389439701297 -1.232225466020443 -0.7741870150042488 0.14352629818226564 -0.99891477788856453 -0.68837920997955737 -0.12835847304532033 1.484566797012189 0.47489357585109065 0.42995531099521395 0.78466552344585128 -1.6633108923484752 -0.54067310397617507 0.3249349616801977 -0.30092458563568131 -1.0632801094814952 0.71605104321281243 1.9022689953295371 0.91299422773016425 0.61034560259935022 -0.61960749432150097 -0.31949479491814081 -0.42916733844081328 -0.49510725599282746 1.0562972694650716 0.37032200921703889 0.80271804936173197 -0.18884740804950259 -0.088166691336873104 -0.81015156292820667 0.15759738799675579 -0.35487694428512417 1.232564716108826 0.31174266834255498 0.42064324707045769 0.64532252568751614 0.99421206240290694 0.55036149021669123 -0.19013004671144379 -0.67102023312275683 0.36197960311310412 -0.30006777856885603 0.70162178482875459 0.85209259356832801 -1.0981104568209397 -0.65751287853163898 0.99076749747471204 1.0092896350775966 0.47841130780729724 0.90621133190711933 0.40997431954554153 2.0676576414992076 -0.77831069942760323 1.4561383557330401 0.92339200414535672 -0.6624277364198814 -0.25795664730729873 0.56211547746829049 0.91292143012162286 1.2230045813795765 -0.060734393352675824 0.67697528156462516 -0.2984661105927634 -0.76875275074364025 0.77854755512177154 0.27280265411247162 0.10152681046567384 -0.21371240852342352 0.65850627644526083 0.53570850182733531 -0.14853709883633467 -0.91135076150686978 0.10309602825186066 -0.62036566706986962 0.80566676669479431 0.79130335191527756 -0.36653216426073726 -1.4453342159624187 0.092543181023581944 1.7511936506151597 -0.34253281626410942 -0.050427289576847181 -0.041223792553931639 0.079819102355605798 -0.035885748726045205 -0.28869936257638235 -0.60804427981003395 1.7316387153229877 -0.59354734436205114 -0.32031354535863582 0.11079071620225879 0.5402748228976465 -1.2239553775836747 0.16371949817482012 0.93547527098746974 0.69479536245584783 0.97760329798685164 -0.45792751088673078 -0.31666736501087467 0.3629353435553816 0.30930996188769094 0.7755523591536605 0.16546641135350906 0.15340781840226284 -0.13398655131987885 2.3529322815077731 -0.11893285310700735 0.48295956041645988 0.75806224956976598 -1.7777589505937328 0.23839406894658008 0.1422984009505141 1.6529961846682164 -0.83986859765854727 -0.68135905422669196 -0.98642009744536874 -0.49335910162924262 -0.81840006921908259 -0.60820002295284314 -0.71719992788610587 0.97688440108457564 1.3114431686046371 0.64378085725360323 0.6023469164082651 0.53751989368482667 0.46842460148665921 -0.26465479446727863 0.12997148553826798 -1.4370883830541794 -0.66855249597113653 -0.52164895240311382 -0.52820848443514412 1.4210368351129443 2.2800779236140798 -0.2487525825148596 -0.90053182706132173 0.83856009192736292 0.87362069049119839 1.1524234239433919 0.31706266833134084 -0.10821514030225884 -0.60886742421870421 0.67457987932542662 -0.80688685547544325 0.91229314967913577 0.18438450385916255 -0.85530989629678389 2.0644285301527359 0.48807142078584748 -0.37705567200153983 -0.15891498607731028 -0.50820168645021557 0.25437791747617289 -1.7924905233898976 0.66796007569319382 -0.087087588078157058 -0.6145979286602713 1.4238157343162696 0.84743265599016049 0.61635645856797905 -0.89566728595774692 -0.84227257308908821 1.4394938375119228 1.7298825389118819 -0.5526122217238113 -1.0746557697238714 0.098926458685044294 2.2851011389662941 1.5764690046965046 0.06720013247582321 1.8379737291145779 0.32224004595275357 0.96877327235047817 -1.0617100822761543 0.94263810904890122 -0.19489687502657199 0.919980777075316 0.69514080856211224 0.59386022594253474 0.13429831974420742 -0.39658449997258605 1.433240364981512 1.3264551601932644 -0.019207358860267223 0.46647766887723741 0.30721564571938803 0.90400225027458769 
0.076529688500198381 0.60225330847835268 0.89670228810378738 -0.70654819576696426 0.54052392850493558 -1.0979956116120921 -3.644130398748163 -1.7532369394606584 0.039376416787356996 -0.027169299282701443 2.1849523451098727 1.4801345077334656 -0.29332280405997035 -0.94031708332935149 0.41141310870405545 -0.45911718150624636 -1.998164915102743 -0.71548121340822135 -1.1198588601762514 -0.22001516446546271 -0.62478063340111456 0.41214229604066976 -0.77647948978432824 -0.2822272642487757 0.12680450571841362 -1.6045817387077184 0.2183016698638075 -0.79375172062266308 -1.4568016604906062 0.093849887991907452 0.70100008752568455 0.61535765382255903 0.25745531807523159 0.15448620921066245 1.28641523887544 -0.23509989245272844 0.48811527455843845 -0.74152200064937368 0.33550952387611965 -0.22237582217520147 -1.124912579210843 -0.18532271266804679 -0.80215895088494227 -0.55350672943379342 1.0752557592367109 0.70766084354574643 0.46388887820244956 -0.37578657849989905 -0.91553235502605024 0.80229778563232612 -0.20991795139840522 -0.43741630311777369 0.51157000660298668 -0.30714062386959856 0.54311405131386115 0.15995915703743604 -0.52602463764802099 -1.505796613425973 2.9530491061571436 0.90468172351557219 1.462304890855582 0.98745061371988474 -2.2430292849294138 -1.0525910529120774 0.35058781425339064 0.29490769860408589 -0.68268060030869859 -0.13784626287392732 -0.31383672044900096 -0.40558588377551391 0.54148997461289006 0.69493399090575292 0.82070108386404395 -1.0498193277171042 -0.38365865128349114 0.65590629097334641 1.4240274354292588 -0.6074366105808422 0.28538639389362974 -0.4436905676752072 -1.9022868268851874 -1.2531055124295734 1.5620691219613489 -0.20601165789876053 0.28056551591790141 0.36955926853409149 1.6482307157243552 -0.63061077482882177 0.54171942911366755 -0.39644021920769279 -0.70789239726498998 0.50614982660258534 -0.29093030450111607 -0.46778250047143421 0.67570805133776479 -0.75460820173879439 1.40197208633752 -0.050444613927640242 0.43520461050121068 -0.2498538342472289 -0.41144292614924455 0.60654986404891043 -1.5099983041793343 0.10824141842161517 0.43923528227023556 -0.41484088424184051 0.15587475349535179 0.090932970941190572 0.056564334893918364 0.83900780204023695 1.1185046934002496 -0.38343425245977891 -0.76239538585988609 -1.6404305372702352 -0.52683947098087447 0.76630650783532483 0.40504156690770926 0.79489014775562583 -0.80345087383974589 0.21106766575234939 -0.26809801313785675 -0.61661263580955117 -1.2618362965158254 -0.37242222459735441 0.6613592704170691 -0.71409509465805243 -0.36871112489335889 -0.42002381929418342 0.28787492567003592 0.74296950016073693 -0.58378619307050428 -0.9035378218922816 -0.11791253732134954 0.34734142780654709 -0.014464799747638635 0.85033606413511598 0.31531840817463025 0.86867773061240627 0.65493284345229363 -0.22838695242444443 0.95153636624568039 -0.54394124846072434 -0.53969110314928159 0.71581207404121627 -0.46677310492428892 -1.345442768351081 1.0782602333378535 -0.20242749275077113 -0.066457975418804424 0.14242946319923899 -0.3128346005275191 1.0822594744438165 0.89664337156209839 -0.75390287418011837 0.39777617811274746 0.98347700142270167 -0.39749576277591842 0.39382901646761043 1.2205520455368404 -0.66177463433701711 0.38317228067666098 0.11640895489799698 -1.0572459292804655 -1.0146780158453783 -0.49472286139316962 0.92366586743023027 0.10955848307404967 1.9717425979622003 0.39753576545587171 -0.54383685496469714 0.073777892446453122 0.56951211085170927 2.733231134260798 0.97917547357681911 0.37478678588278092 0.38076027362212428 0.60385415898726047 0.12852816516503515 0.13492168515063638 1.2297116573177569 -0.037605998861160707 0.029937430300947164 1.252411592620033 0.42221109648122013 -1.3493067130039307 1.1155992434619759 0.40739081404364291 0.57631965084418413 1.4697264589071071 -0.51920428576721034 -2.0752087376314381 -0.2849402355383594 0.17714760815547631 0.037482624900307904 -0.32555921702689256 -0.69784705280141668 -0.12403319535599845 -0.10287191353507229 -0.91446642875809192 -0.75363893447297547 0.36001225373136275 0.80229061437069693 1.4462782008687143 -0.84481758043308863 0.28327282444097479 -0.60767995701754718 -0.54751144872693491 -0.4363040933865785 0.81574447776663828 0.56981272036841302 -0.52084201064031044 0.24813502152496111 -0.60262414239689455 0.78475649469116404 -0.59033147855910806 -0.66070547731421114 3.7642579945368815 0.60952596714111928 -0.74812099032538049 0.068123806439013751 -0.7040650228064208 -1.1616577507003607 -0.35590729112346925 -0.29937292843010299 -0.0022226355125010261 0.67383922275012176 -0.54646359390461052 0.79081664146177688 -0.99143578520633235 1.1048951211699565 0.61189809427369757 -1.0616272853101478 2.7562139867654762 0.64895532997047201 -1.1768607674374689 -0.14820924414900724 1.2724699185710528 1.1204922250032485 -0.011545628893749823 0.67212646523229613 -0.20937429185461376 0.32896594105505794 0.071010163894559719 -0.66314900153758449 0.89857228551427371 -0.3358963071224173 -0.49467614684239597 0.544951574149655 -0.74654665149692356 -0.45481200837247604 -0.74334211742989964 -0.050902276509636885 0.012612191378876451 1.9233472526542226 0.060617608962918762 1.0253923187714351 
1.4399234710369713 -1.0606544711142181 1.3174666492786309 -1.524288808198297 0.60899108582757844 -1.2730273482966972 0.21194102688999525 -1.5302669349867013 -0.10572273123626724 1.3018821693644427 -0.014635524568898528 2.1364544066976463 1.0702660413546206 0.65429228019272057 0.25123421788536271 0.043389443622495812 1.1453881805642638 0.68810788323783934 -1.1171973462428146 -0.25917480407434407 0.067237346210070395 1.5877474505184834 1.5522696946032251 1.6403401565195301 1.168890794950999 -0.61763711285162093 -3.9309906104894958 1.0046571543273088 -0.76233350653034326 -3.3763324672236283 -0.38657239866815563 -0.20509715497841982 2.890456040906122 0.021366290707240367 0.18761141774267961 0.82413409174796837 -1.0679417617910361 2.195081450211251 -0.76897438884890013 0.47192821841766375 -0.52819060420394981 0.88015762342103143 -0.90192112051301754 0.31560719519402175 2.0181353665112014 1.1744726559986551 0.80656324331530216 1.4019718045040517 2.6857936084295537 1.1657904034032773 0.90699765365564522 1.3506252628362805 -2.0015179498698021 2.6328841727548205 0.41711069729742195 -0.54128995691070092 -1.8058700502769605 0.75072830626970311 3.672859976967294 0.5320516062886278 -1.8674987733750694 -0.44200773271751037 0.82765631958997377 -1.6458846611564235 -0.22731267825286477 -0.18136145993435801 2.5155883053321082 -1.2844823145070061 -0.58420145055722483 1.5854954798695997 0.96315220559872849 2.548977561157761 0.568082065709969 -1.0668725508671468 -0.56616451585447136 1.5766559928083008 -0.82712623266197882 -2.6508445947619608 1.0710070382515318 1.6994649337027623 4.3410829153462958 -0.25826887137866672 1.8470299951612184 -1.6301384416658744 0.96340876861172475 0.53980253428742364 3.7678791398154807 1.1536913269903057 2.5616165743012576 -3.3753157939553597 1.6899809404383599 0.83939627795551386 1.9354931935561279 -0.5730193065028274 -0.16755925016430451 0.62908610852417024 -1.826720143046257 1.1519324111611973 1.5068223682950359 0.76272433253494476 -3.2194221447866318 1.302161798037875 3.1641481792987238 1.7478744286142798 1.0100495042972422 -0.9757103757066532 1.4688727774890247 -0.73624781852757648 -0.75865897179136754 -0.58777869570823527 0.65173994824705339 2.1302929465526192 -1.2398762536281536 -1.3290036430312575 3.2265075369870369 0.77713922353175491 0.0089069191293888184 1.5979649772011959 1.5130437446078848 -0.50024677417696495 1.9374230797328367 0.99618954212137545 -0.023166578922963092 1.550048405983752 1.760911843744674 -1.1794250914136841 0.93464767982539865 1.4271002042403438 3.0104083271474615 -0.10675281451027406 0.67699989690561524 -2.0856383805493031 -0.4683687834001698 -0.80335034775163783 0.33525062510527892 -0.89312846784285504 -0.40244000564963456 1.7126963311292394 0.42089448542588531 -2.1100732110726756 1.0929286043245119 1.2228211569087977 1.1465598227275975 -0.51644223140947743 2.9403611148530953 0.76172078218203432 0.33697131223683291 1.9343131827041729 -0.059311952825163328 1.0880839838434009 -1.3250135283219868 1.3670117338134422 1.0845882253424057 -4.3636787256836014 3.7108057002544461 1.6281006022637774 -1.5527787095841048 0.92956322066436092 -2.6703241218214542 -2.9981273394038501 3.2611026327074835 4.7101551582540475 -1.0298941897457727 4.0336367750940889 -2.1353272324048569 1.2136085427481769 -0.82489052486115144 1.8132855628616626 2.4133831455780568 0.49634637194755526 -5.4845307860606232 2.3347310010246876 1.9561564831587073 -0.91116305977726686 1.8251192081062813 -2.7228616286775189 0.62455679515180451 0.18081806046094492 2.3212313144947982 -1.2400532242379223 2.9183058702019804 -2.330015932779173 1.4786846122840911 -1.0329605004668527 -1.4267078759110949 0.8124236531544422 1.2788481978909507 -1.6910488171606017 1.1507106673276997 -4.7442220748788051 -0.38724970685131832 0.21424048145819374 2.4888478236838854 0.8147539182647372 0.49402434536321932 0.65838450149877914 1.7468493236214881 1.6460393913800768 0.78313514062335887 1.3180064010500876 -0.11883470421913724 0.70749652079567948 -1.2634276889100811 2.949457421932975 -0.37553644292906302 0.64892892708077232 1.9680917364358927 -0.54947738124769929 1.3736587804339564 -0.8762888394943894 1.5418789348019906 2.7675627457434677 1.2885143260302754 -0.54201021046337927 1.2489413809366812 2.7789397249742449 0.67615685328291175 0.74247827934731259 0.54467969266516336 1.5918121746658027 0.93101174435946987 -0.70200955287184574 -1.4233088561434826 0.6731699299941134 1.1122939673615373 1.1541175168731539 0.39267275027671394 0.616468441967434 0.26649296777557413 -0.76257136464815189 -1.2920821055350979 -0.76287318335534027 -2.8344354289675593 -2.8259982894594211 3.6038057786079465 -1.0831091579326084 -0.45835581546080745 0.65599876393051504 -2.3242122112587058 -1.3253362657840835 -1.6570472045981706 2.6416989564060036 0.76188769301967141 0.46295694102992319 2.1370391385782406 -1.5937208551617215 -1.5976404890021425 2.4438005959231806 -0.82773301434931679 1.0755592335073321 3.7968959022109323 1.817425449708014 -1.6686912062210806 -1.625574616919266 1.2760693785274118 1.4736946270804678 
-0.54492796191243831 -0.62608574965320796 -0.21523011625522293 -0.2760790899750214 -0.64557099418974062 0.69534069751172356 0.86903605045240195 -0.061960383812878495 -0.35744659852117611 0.5709313953159989 0.19060902632335619 -0.26887362695712302 0.006571767389109251 0.59441940933206094 -0.55178938412656509 0.045492672848278959 0.76921351150107276 0.42903167169030376 0.79009070051372543 0.091022755527413901 0.72015235094360652 -0.95012047325732207 -0.31713368153066079 0.18278459328356411 -0.24796327820418551 -0.80231792004886915 0.93096013363961139 -0.099530531605486972 -0.059715572306753839 0.47831563720401182 -0.89001723839436531 0.39535646578080796 0.85222988848212644 -0.10524735371826555 -0.88072262512553601 -0.79334110663893687 -0.40990665713786456 0.98831342532686572 0.14469850954818475 0.23264674434095944 0.55924481971154205 -0.66469246505978163 0.96377311831515899 -0.43418341289934859 0.92972694427227931 -0.58801626674272878 0.61130925994893026 0.69894045484202927 0.84101540494757487 0.40139995953133334 -0.21003678963055683 0.5611677558911814 0.45127948627401127 0.47282952883878226 -0.25604765175657707 -0.79668379286149693 0.67051160878991323 -0.32508751904828825 0.10378567553301599 -0.3892039644481633 -0.84677188184427654 0.21376843713865079 -0.99384749959867802 -0.99454199429347268 -0.89147891751093744 -0.87457012472421403 -0.78788310093240954 -0.30138557371747943 -0.88625669939734819 0.3568154086157751 0.93126117062347991 0.67298812031419386 0.69212294355599346 0.89503428800731633 -0.76119529351647719 0.6218498868969502 -0.69298197873541245 0.85011396643245307 0.32079034173897947 -0.85196657471916015 0.25151392503246384 -0.88924644882289994 0.70920118117202136 -0.29720658962484758 0.58358308001588233 -0.54684647151587829 -0.093890382486344515 0.25409468787447298 0.12806601036715604 -0.99010470788465099 0.86489072342630968 0.28129412852287961 0.22366373018532237 0.87104322382763177 0.28675213422940682 0.33218481267438493 0.99647309910341786 0.49886903329699717 -0.96920076197441707 -0.88978360122525302 -0.1443155590185502 0.96206040958038552 0.78320452002026353 -0.45219261639387931 0.85709469665637927 -0.97799077442753635 -0.8303427304282518 -0.83588728301035575 0.87212319293623941 0.49044761131072767 -0.68785385679819333 0.12363711703738067 0.60120116248782773 -0.97865267655749466 0.82643052834385555 0.18478424157238771 -0.52549914714205037 -0.26745985507381143 -0.56112107148446189 0.60256686322510555 -0.25756456202713984 -0.69623034898947478 -0.11613900918333742 0.96609916815818253 -0.82518712609316558 -0.82938687588525328 0.29828397990124489 -0.82871402698974772 0.66948215741174399 0.32908321885815051 -0.71849762821500085 -0.47483340253812889 0.29114362750721323 -0.9352931091260599 0.072973981067991911 0.14823832323226993 -0.91328388262227356 0.24263125063974011 0.31235104115323686 0.95883931031396585 -0.26692113804953221 0.62449718435504353 0.082476426420023952 -0.66571997649302705 0.64584450779754876 -0.09109304616744307 0.51906426601068323 -0.87965464027582418 0.64144709969006808 0.95794319452622112 0.72291222294928148 -0.61611746326839434 -0.73828715446325355 -0.39322678716537862 -0.65001829604153438 -0.56347428055641902 -0.22261366305063179 0.64826568385971051 -0.39218830754616685 -0.55313150657021048 -0.022651098213461784 -0.11068593482984501 -0.027964909108339264 -0.73150747163757091 -0.045979043955904908 -0.95499092897167004 0.4167308525260216 0.040737073421821535 0.28764032259939243 -0.27091810725206422 -0.00042361719553529742 -0.97928081638146225 -0.64642092382834337 -0.91794719077551146 -0.64500079287448941 0.99942358396920539 -0.0090402369429545271 0.87406347313619381 -0.8802310563066188 -0.36759313818420891 0.83200666766241493 0.84268116664266257 0.016289398547396639 -0.90628048773216108 -0.55054562052271594 0.36627110250586226 -0.46975476828858009 0.22684071642665216 0.014536786365572762 0.13805692509657552 0.67370921078776447 0.99188568815211098 -0.97262901066459206 -0.35425569925189748 -0.73962178348545993 -0.018608054620496972 -0.30924662729224495 0.67710906904056167 -0.97787098119867544 0.97839369530714748 -0.59380903914282523 0.021705401605789376 0.99911287892568534 -0.2402299629711685 0.10375821083027792 -0.64588791488012665 -0.24080637993328569 -0.90528202611267661 -0.77182444174393283 -0.12103743623990448 -0.27287516429688552 -0.93981777501284036 -0.2783562695972418 0.7434142351818338 -0.84609826274500144 0.17109810988004237 0.10968533675637349 -0.31585303103358164 -0.60206117462462805 -0.87577787780937644 0.8222038940629941 -0.92835196476818616 -0.88389218965726535 0.84957488339840204 -0.28260766308876106 -0.62351397314272539 -0.16903317122209505 0.40814570961899399 -0.9464049050334864 -0.14690415242077048 0.3865394039948189 -0.54021394417631163 0.87480124918501878 0.38565228198918144 0.21955609285251976 -0.0214405399847033 0.7397643671090548 0.97874971291923418 0.073277433902620093 0.96793992536512197 -0.1422877233206703 0.80040226960573446 -0.97187785057904097 0.57935600708208801 0.54381650385624569 -0.81797611332404241 -0.24954588396919231 -0.34649815938738093 -0.13382914342630148 0.14839294140617976 -0.22227603719675726 -0.31162525029463006 0.22004097756931595 -0.10616822685402272 -0.46205036689622814 0.93743331448055489 
0.2703271704597035 -0.33305321408824706 0.34588086627971282 0.57189505593745904 -0.70086312505103432 -0.55105905819564693 1.1694964535098324 -1.3920081963157305 -0.00014890219829710849 0.076554441195089057 0.090047946173106019 0.14721613487133886 0.67080484009345642 -0.98554013950303876 0.82527279010078569 0.83705867717449756 -0.039365985934140264 0.85188823559322424 0.41906582872415438 0.49178350599591153 -0.96532297213623686 -0.80785121384427416 -0.85362965736845986 0.16730212339796188 0.41136953374455038 -0.63447575243841914 0.59018856643689199 -0.46001058922686866 1.2501548419235122 -0.64067449659179165 0.022858916065379459 0.088124774076520848 0.28186145392628781 -0.21090764660011882 -0.8179503661450569 -0.21059841897551981 -0.37373212162465208 -1.1622625562728681 0.76761441750937986 -0.4684147514631124 0.19963942134591281 -0.635353332285433 -0.47160249430087225 -1.8182367773656902 0.039872930467601715 -0.64610607701310319 -0.97918854084435514 -0.45067798754537486 -1.2291627476851377 0.43998854383322461 -1.5128415535471536 -0.67461832623501705 0.71728011535057035 -0.64092845746799665 0.14488269141170734 0.38820296152092576 0.90887884531003327 -0.052499100512250464 0.63879713925568471 0.37041975974468588 -0.51742059300475907 0.62616911215749649 0.1461178811491167 -0.64081306068888289 0.76139840272758719 0.079659709037273471 -0.69734721218771678 -0.44112961083704738 0.06645517478438065 0.89581163235955774 0.64242130582003032 -0.73443092492106044 -0.2136339162174096 0.51323580727425855 -0.55331778216550143 0.82621729111674835 0.86790384759281591 -0.17634644533221205 -0.72488361383179523 -1.4439268459061936 1.1190700039841341 0.33614237896301036 -0.7210342008121472 0.51396129204751562 0.92507599457836065 0.47426180356349196 0.13302229148132907 0.34633304739686055 -1.4914524774029481 2.1675967323905252 -0.11867317256651219 0.11073407358466852 0.85023346468843664 -0.14037368048627538 0.4972918825587761 0.62159628845404424 -1.0501978457781513 0.24021010564314668 0.48367360899730732 0.24309248232633421 0.21442473433747614 0.47891543217452404 -0.90122443152380838 -0.81748518164333794 -0.56292291265893024 1.0081665774257733 -0.73701514582320204 -0.7723091906690579 -0.58196120046635524 -0.17619131226893961 -0.56260829446255778 -0.69432172907397594 -0.87927108183740765 0.21375189823507626 0.84713958506677089 -0.95410677569819369 -0.93762328733846201 -0.5242538249683304 0.64832369664287781 -0.401066142913447 0.20098305785504123 -0.6291109377308638 0.84230446461986253 -0.94902729031738098 0.17298700598402308 0.63406806102364599 0.72320359530320566 1.1123727458820512 -0.70199806194005621 0.59125119098866696 0.096656270034512728 0.73083127696169714 -0.49799984639472289 -0.48320765107285107 0.90958218483801456 -0.46561537739891889 -0.44106940945095591 0.92140800906657916 0.22259588506856462 -0.016467094433911214 0.032065342638627016 0.58391286097841455 0.31379908629443315 -0.38962068877347245 -1.1554200691786716 0.29428894704918235 -0.098066902843219644 -0.56815764493192134 0.17286908731582326 -0.11413242634522545 -0.21968235955592935 0.65279295007280902 0.26503814145782534 -0.90091676356017536 1.7150080182501273 -0.51672011202561785 0.24903187417446035 0.12468409509659095 0.28095037412257495 0.35406982709834595 -0.47203169154127222 -0.8103093515819938 0.22642096272338399 0.5887979363923681 -0.96258483813113793 0.0036164655086210911 0.1948187106767158 -0.9794022183270058 0.26044655759653973 0.73936061006070897 0.78900779978867874 0.67013985814703247 -0.45381644148429512 0.33148453446431264 0.068096915194909069 0.48281211796351098 -0.94257035618384322 0.44813247056865202 -0.092213250149882811 0.44866755922116575 0.88326460892435665 -0.67559921831254222 0.31233441416472757 -0.32540693876111071 -0.64900052339673797 -0.13283707107499987 0.17223891109657891 1.010025760406311 -0.49555482964324132 0.36511228188133588 -0.72297496721773491 0.2164117499506869 -0.20882674869923704 -0.78638501990630083 -0.34955023984614775 0.0099966344876960198 0.34807248892907061 -0.073186654713323335 0.57974236636949106 -0.70339935072379367 -0.55502915442476564 0.29439129949708548 0.021898570205385954 0.85039857842296085 -0.94111542995896702 -0.50089766430911353 0.012264121254331611 -0.91673335725179428 0.95072647455918791 0.66272422215621596 0.62610997044808603 0.6033071966558905 0.87335150380867199 -0.18765013214511764 -0.47675353182176194 0.07860713328103279 1.1066088293433094 0.69655894344550517 -0.24975472835020884 0.89051234027008319 0.20401426095005717 -0.97522348979959783 -0.33114489260651658 -0.85345990724290022 -0.6057691609908773 0.73236272030412741 0.0062776094433307072 0.75468073782485112 0.57251097235221926 0.49737757564107488 -0.93862465143948703 0.43013359304043747 0.4560608836530744 0.50892512845948634 0.22780226463708805 0.92819535256855434 -0.70719159357000039 -0.30743049139770134 -1.7767317629755659 -0.45160133641289729 0.77278279069551603 0.6854298968347442 -0.51995673680335674 0.79429985083909571 -0.23820233923840831 -0.16190816508171391 -0.32641691978814064 -0.58441133519364685 -0.46584738897915501 0.075148069602793827 -0.73039974517501161 -0.26810052357428626 0.40532609778552475 -0.93666298521116231 0.88514331930176482 0.7995092856884648 
-0.071579232316872382 -0.20075139296770425 0.61600683030919268 0.89808474561534224 0.69377997251767698 0.63336859208942753 0.57961484464058799 -0.27169582342256005 0.99729111220544198 -0.52901887101043465 0.08381541844257015 -1.1473205696542919 -0.46788992575190219 -0.12240213448825366 -0.32514289408619562 -0.3528064999795385 0.44476614598631597 -0.021204156595318577 -0.58439540246712696 0.54480149501445974 0.919999948576528 0.2198597358920969 0.81855084285975743 -0.88959157426836855 -0.30389594383630941 -0.48856311286481952 -1.0317146127319172 0.99595972676204192 -0.51202657565503806 1.3195251953636804 1.4247550306852483 0.75724324198322224 0.1922931084692163 0.51022610643981192 1.5605451635613976 -1.0344898159071962 0.23539070746125118 -1.2662898917341203 -0.62787234327215125 -0.57314697885446175 -0.67181070611002913 0.87580012021514386 -0.23985727730991874 -1.4876918483124701 0.41221842629834571 0.45074201844819384 -0.88226825102558659 -1.1920603446731537 0.68068321477384952 -0.20919427856141734 -0.72326126796217982 -0.12154791766195698 0.37827097538943405 -0.80915306065303538 -0.41382762430328768 -1.1809175895378414 0.54888706532562626 -1.0623409284687841 0.29648422339541464 -0.052698481714389463 -1.0662287175389731 -1.1586349777756373 2.7675764097866029 0.37722470382527457 1.2809473386908521 1.512002470493528 -1.1752919936102235 0.67227354987030552 -0.91433589554104144 -0.33772514307918827 -0.14747087433449918 -0.14918996515143315 -0.42916563138645675 0.6024714626620522 -0.82985736208607164 0.90414145872425211 0.46060995731846072 -0.17142060370774645 -1.2596075049474207 -1.8391677668893165 -0.55876901224503472 0.49575396172527625 1.0071407442502767 -0.087733492517153358 -0.2243033210977757 -0.581692297633293 -1.1317470829107834 -0.068541207439345192 -0.2101313654908161 1.8570419622616061 0.26849756540798647 0.62243712655585881 0.92165277886119512 -1.318595546841985 0.19524469932102714 0.43854823784821328 1.032458249290537 1.0583064191638951 -0.88880718356712396 -0.8290368974057849 -1.4142079559267786 1.053229683709519 -1.4310398679757088 -0.19928641524287843 -0.71657259744918156 -0.77714372036566715 -0.37052821774316563 -0.10211694664435118 0.76108860907858222 0.025008632663779104 0.45372454222533554 0.37273272092914317 0.80653403219746811 -0.60167218925930788 0.95844346292639537 -0.32339340317632104 -0.75401543470286159 0.99620634785597639 0.56642533531780315 0.08458164411899563 0.50606524451941259 0.011813128879247098 0.25379214812366219 0.056963572643098835 -0.37694702448471568 0.040213167494813191 -0.29869335251713525 0.19242039359871183 -0.47287737981057298 -0.88456269926526843 0.32727714112822287 -0.34153187549141573 -0.50970686330579873 -0.59854831483107218 0.54753403673774492 -0.85567309726896157 0.54613300066401305 -0.79864372397062111 1.0178692511896914 0.00031565863051498974 -0.43431098422915926 -0.2697092745232797 0.95078286091838526 -1.6271989570811833 1.0515540473843639 0.91914765662764775 0.4820538067307798 -0.86571160230166666 0.37384701936840159 2.5462890173131365 0.9425281192551962 -0.557890222361487 -0.8017611326773233 0.99417618928383722 0.61802620771909744 0.24155073627012238 0.040786549749981985 0.24748652199196938 0.86512750517804393 -0.4430976177463708 1.3206487641138318 -0.18145422226092073 -0.10210194183288293 -0.41586132288973437 1.6940453953144632 -0.22613097730280102 2.11749837916883 -3.4025198992001893 0.038173047431855497 -0.19304418892442293 -0.65993703088658784 -0.69651419949525362 2.1497383289562073 -0.5313478933273954 0.060117735142982097 -0.0024219947687215766 0.75399123246499233 -0.25556408066881831 -1.5869629169297821 -0.89318853031955292 0.73507721363955514 -0.49795091616645043 0.44587999277571794 1.0204641487413177 0.66136761722968163 -0.23425336383859646 0.072562481524341291 -1.0497171783189641 0.61545596421340876 0.76418574293607833 0.023841752644126617 -0.34097745395872797 -1.2828924964999553 -0.98518855356488688 0.007485681773643814 -0.035177205477773393 -0.27913525035952635 -0.83072839362221107 -0.94914243304070911 0.76482289635996958 0.43180871713285357 -1.0098314626612794 0.71033800128390501 0.29766618334655875 -0.77989081759393608 0.1187704779164193 -1.3320494726025365 0.69156188517371975 0.51057657716731542 0.051507378378055545 -0.15980884020851821 0.18672354662568957 -0.58018526421377914 0.62432048918936678 0.15776346126293753 -1.7529251861091546 -1.8054979368396162 -0.75930628422987068 0.36075525022331695 0.15369174282745238 0.65109495759774938 -1.0978163707047552 -0.1671278895710869 -0.39801636274703905 -0.65425796993016283 -0.51511998996439368 -0.091076134550509641 0.14847886671498642 -2.0816512152707864 0.53238717863793017 -0.20610501874722501 -0.90884814132778358 0.52215479286955779 1.3352202706400431 -0.19015995336161093 0.75910006031133581 1.4056401511617997 -0.46089534545505212 2.5102615020604873 -1.5301841333513055 0.083700487482218949 -0.54589904189102101 -1.2022512573496222 0.48812447559511879 -0.78078507185122559 0.43033168606856492 -0.59629186854104699 0.71841281185458339 0.41678716891635198 1.3393189451686396 0.0033011971134097695 1.2839085949384323 0.60812386080929315 -1.8287116577515461 0.56702519415058716 0.95141294838505719 
